{"learner":{"attributes":{"best_iteration":"99","best_ntree_limit":"100","scikit_learn":"{\"n_estimators\": 100, \"objective\": \"reg:squarederror\", \"max_depth\": 6, \"max_leaves\": null, \"max_bin\": null, \"grow_policy\": null, \"learning_rate\": 0.1, \"verbosity\": null, \"booster\": null, \"tree_method\": null, \"gamma\": null, \"min_child_weight\": null, \"max_delta_step\": null, \"subsample\": null, \"sampling_method\": null, \"colsample_bytree\": null, \"colsample_bylevel\": null, \"colsample_bynode\": null, \"reg_alpha\": null, \"reg_lambda\": null, \"scale_pos_weight\": null, \"base_score\": null, \"missing\": NaN, \"num_parallel_tree\": null, \"random_state\": 42, \"n_jobs\": null, \"monotone_constraints\": null, \"interaction_constraints\": null, \"importance_type\": null, \"gpu_id\": null, \"validate_parameters\": null, \"predictor\": null, \"enable_categorical\": false, \"max_cat_to_onehot\": null, \"eval_metric\": null, \"early_stopping_rounds\": null, \"callbacks\": null, \"_estimator_type\": \"regressor\"}"},"feature_names":["lag_close1","lag_open1","lag_high1","lag_low1","lag_volume1","lag_close2","lag_open2","lag_high2","lag_low2","lag_volume2","lag_close3","lag_open3","lag_high3","lag_low3","lag_volume3","lag_close4","lag_open4","lag_high4","lag_low4","lag_volume4"],"feature_types":["float","float","float","float","float","float","float","float","float","float","float","float","float","float","float","float","float","float","float","float"],"gradient_booster":{"model":{"gbtree_model_param":{"num_parallel_tree":"1","num_trees":"100","size_leaf_vector":"0"},"tree_info":[0,0,0,0,0,0,0,0,0,0,0,0,0,0,0,0,0,0,0,0,0,0,0,0,0,0,0,0,0,0,0,0,0,0,0,0,0,0,0,0,0,0,0,0,0,0,0,0,0,0,0,0,0,0,0,0,0,0,0,0,0,0,0,0,0,0,0,0,0,0,0,0,0,0,0,0,0,0,0,0,0,0,0,0,0,0,0,0,0,0,0,0,0,0,0,0,0,0,0,0],"trees":[{"base_weights":[3.625871E4,2.0830355E4,5.9242348E4,8.82498E3,2.8521121E4,5.5039645E4,9.598123E4,7.1927017E3,1.614202E4,2.372885E4,3.402935E4,4.5603562E4,6.2563266E4,8.515209E4,9.789448E4,4.2421846E3,8.931076E3,1.2074348E4,1.688184E4,2.1145113E4,2.6796502E4,3.0569572E4,3.708816E4,4.2747176E4,4.8884188E4,5.8724707E4,6.670601E4,7.7519984E4,8.931662E4,9.585584E4,1.0230798E5,3.7594722E3,5.3470303E3,7.8480205E3,1.0187282E4,1.6699393E4,1.7516564E4,2.005089E4,2.2756168E4,2.5711443E4,2.7591672E4,2.9848252E4,3.2465855E4,3.5310902E4,3.843702E4,4.1635766E4,4.388662E4,4.758399E4,5.1299445E4,5.6636918E4,6.0719637E4,6.451083E4,6.890106E4,3.5569053E3,3.927522E3,5.1877026E3,5.9065664E3,7.3005146E3,8.248992E3,9.662005E3,1.0763171E4,1.941135E4,2.0710332E4,2.1935998E4,2.3236523E4,2.4477197E4,2.6129201E4,2.7129318E4,2.819113E4,2.9349496E4,3.03218E4,3.1702684E4,3.3135547E4,3.4529133E4,3.6165566E4,3.758844E4,3.9168953E4,4.0668734E4,4.2107387E4,4.3428625E4,4.4955504E4,4.6794344E4,4.849361E4,5.0382574E4,5.2345316E4,5.5113727E4,5.745945E4,5.9477812E4,6.1502566E4,6.3620938E4,6.576819E4,6.780155E4,7.06311E4],"categories":[],"categories_nodes":[],"categories_segments":[],"categories_sizes":[],"default_left":[1,1,1,1,1,1,1,1,1,1,1,1,1,1,1,1,1,0,1,1,1,1,1,1,1,1,1,0,0,0,0,1,1,1,1,0,0,1,1,1,1,1,1,1,1,1,1,1,1,1,1,1,1,0,0,0,0,0,0,0,0,0,0,0,0,0,0,0,0,0,0,0,0,0,0,0,0,0,0,0,0,0,0,0,0,0,0,0,0,0,0,0,0],"id":0,"left_children":[1,3,5,7,9,11,13,15,17,19,21,23,25,27,29,31,33,-1,35,37,39,41,43,45,47,49,51,-1,-1,-1,-1,53,55,57,59,-1,-1,61,63,65,67,69,71,73,75,77,79,81,83,85,87,89,91,-1,-1,-1,-1,-1,-1,-1,-1,-1,-1,-1,-1,-1,-1,-1,-1,-1,-1,-1,-1,-1,-1,-1,-1,-1,-1,-1,-1,-1,-1,-1,-1,-1,-1,-1,-1,-1,-1,-1,-1],"loss_changes":[5.026328E13,7.830946E12,8.785473E12,3.9545078E11,1.3638618E12,3.6243652E12,1.12726114E11,1.3886331E11,1.7972593E10,2.1857986E11,2.533842E11,2.1033596E11,4.480859E11,2.1205352E10,3.4812723E10,5.3355315E9,2.3103668E10,0E0,2.991063E8,2.6009403E10,1.0194256E10,1.4475592E10,2.9232202E10,1.3530825E10,3.0670848E10,5.8044973E10,6.1392028E10,0E0,0E0,0E0,0E0,2.240512E8,2.413527E8,1.9496305E9,2.2815703E9,0E0,0E0,3.3722204E9,1.8798346E9,2.1236285E9,1.2530483E9,1.0454303E9,5.337252E8,2.4379392E9,3.0261903E9,1.0957619E9,9.699328E8,2.6644316E9,8.8919245E8,5.888803E9,3.6679188E9,3.477078E9,8.178893E9,0E0,0E0,0E0,0E0,0E0,0E0,0E0,0E0,0E0,0E0,0E0,0E0,0E0,0E0,0E0,0E0,0E0,0E0,0E0,0E0,0E0,0E0,0E0,0E0,0E0,0E0,0E0,0E0,0E0,0E0,0E0,0E0,0E0,0E0,0E0,0E0,0E0,0E0,0E0,0E0],"parents":[2147483647,0,0,1,1,2,2,3,3,4,4,5,5,6,6,7,7,8,8,9,9,10,10,11,11,12,12,13,13,14,14,15,15,16,16,18,18,19,19,20,20,21,21,22,22,23,23,24,24,25,25,26,26,31,31,32,32,33,33,34,34,37,37,38,38,39,39,40,40,41,41,42,42,43,43,44,44,45,45,46,46,47,47,48,48,49,49,50,50,51,51,52,52],"right_children":[2,4,6,8,10,12,14,16,18,20,22,24,26,28,30,32,34,-1,36,38,40,42,44,46,48,50,52,-1,-1,-1,-1,54,56,58,60,-1,-1,62,64,66,68,70,72,74,76,78,80,82,84,86,88,90,92,-1,-1,-1,-1,-1,-1,-1,-1,-1,-1,-1,-1,-1,-1,-1,-1,-1,-1,-1,-1,-1,-1,-1,-1,-1,-1,-1,-1,-1,-1,-1,-1,-1,-1,-1,-1,-1,-1,-1,-1],"split_conditions":[4.0057742E4,1.8639621E4,7.560043E4,1.1671665E4,2.888508E4,5.4017594E4,9.14727E4,6.60055E3,1.480514E4,2.3972785E4,3.382172E4,4.5819656E4,6.27204E4,8.311495E4,9.904903E4,4.44573E3,9.01492E3,1.2074348E3,1.7109814E4,2.140817E4,2.6655295E4,3.1127125E4,3.687341E4,4.2766367E4,4.947697E4,5.8669812E4,6.672244E4,7.7519985E3,8.931662E3,9.585585E3,1.0230798E4,3.7416E3,5.546165E3,7.77294E3,1.0214045E4,1.6699393E3,1.7516565E3,2.0053016E4,2.2593984E4,2.526816E4,2.7669934E4,2.983877E4,3.2419637E4,3.535139E4,3.837212E4,4.1376406E4,4.4200742E4,4.7639605E4,5.137453E4,5.6278477E4,6.0472094E4,6.4706965E4,6.9202625E4,3.5569052E2,3.927522E2,5.1877026E2,5.906567E2,7.3005145E2,8.2489923E2,9.662005E2,1.0763171E3,1.941135E3,2.0710332E3,2.1935999E3,2.3236523E3,2.4477197E3,2.6129202E3,2.712932E3,2.819113E3,2.9349497E3,3.0321802E3,3.1702683E3,3.3135547E3,3.4529133E3,3.6165566E3,3.7588442E3,3.9168953E3,4.0668735E3,4.210739E3,4.342863E3,4.4955503E3,4.6794346E3,4.849361E3,5.0382573E3,5.2345317E3,5.5113726E3,5.745945E3,5.9477812E3,6.150257E3,6.3620938E3,6.576819E3,6.780155E3,7.0631104E3],"split_indices":[0,0,0,0,0,0,0,2,0,0,0,0,0,0,0,0,0,0,0,0,0,0,0,0,0,0,0,0,0,0,0,0,0,0,0,0,0,0,0,0,0,0,0,0,0,0,0,0,0,0,0,0,0,0,0,0,0,0,0,0,0,0,0,0,0,0,0,0,0,0,0,0,0,0,0,0,0,0,0,0,0,0,0,0,0,0,0,0,0,0,0,0,0],"split_type":[0,0,0,0,0,0,0,0,0,0,0,0,0,0,0,0,0,0,0,0,0,0,0,0,0,0,0,0,0,0,0,0,0,0,0,0,0,0,0,0,0,0,0,0,0,0,0,0,0,0,0,0,0,0,0,0,0,0,0,0,0,0,0,0,0,0,0,0,0,0,0,0,0,0,0,0,0,0,0,0,0,0,0,0,0,0,0,0,0,0,0,0,0],"sum_hessian":[1.41749E5,8.4816E4,5.6933E4,3.3119E4,5.1697E4,5.1091E4,5.842E3,2.708E4,6.039E3,2.7648E4,2.4049E4,2.2668E4,2.8423E4,8.84E2,4.958E3,1.0041E4,1.7039E4,9.32E2,5.107E3,1.5012E4,1.2636E4,1.129E4,1.2759E4,1.2125E4,1.0543E4,1.4761E4,1.3662E4,3.19E2,5.65E2,3.407E3,1.551E3,6.991E3,3.05E3,9.154E3,7.885E3,3.988E3,1.119E3,8.948E3,6.064E3,5.358E3,7.278E3,8.191E3,3.099E3,5.517E3,7.242E3,6.157E3,5.968E3,6.867E3,3.676E3,7.227E3,7.534E3,6.846E3,6.816E3,3.18E3,3.811E3,2.382E3,6.68E2,3.878E3,5.276E3,4.133E3,3.752E3,4.558E3,4.39E3,2.257E3,3.807E3,1.37E3,3.988E3,4.135E3,3.143E3,4.02E3,4.171E3,1.471E3,1.628E3,2.903E3,2.614E3,3.378E3,3.864E3,2.047E3,4.11E3,4.207E3,1.761E3,3.704E3,3.163E3,1.985E3,1.691E3,2.558E3,4.669E3,2.943E3,4.591E3,4.039E3,2.807E3,4.192E3,2.624E3],"tree_param":{"num_deleted":"0","num_feature":"20","num_nodes":"93","size_leaf_vector":"0"}},{"base_weights":[3.2634107E4,1.8666447E4,5.320034E4,7.936062E3,2.558517E4,4.9423594E4,8.630878E4,6.3572104E3,1.4039277E4,2.1305752E4,3.0484111E4,4.0905355E4,5.625614E4,7.336751E4,8.770594E4,3.8156174E3,7.9240264E3,1.0639696E4,1.5186206E4,1.8961178E4,2.3999836E4,2.7389826E4,3.321851E4,3.8341547E4,4.386611E4,5.271577E4,5.9926918E4,6.94184E4,7.82358E4,8.513037E4,9.094608E4,3.3837275E3,4.8085044E3,7.0565503E3,9.030422E3,1.0480686E4,1.1377818E4,1.5072229E4,1.5973627E4,1.7893535E4,2.0220764E4,2.279085E4,2.4650377E4,2.6810916E4,2.9011027E4,3.1571502E4,3.4419203E4,3.7163613E4,3.9250492E4,4.2619227E4,4.5807418E4,5.0798527E4,5.4444047E4,5.782734E4,6.185111E4,8.278621E4,8.622919E4,8.947613E4,9.430106E4,3.1977373E3,3.5324722E3,4.656797E3,5.268365E3,6.593518E3,7.4400024E3,8.443468E3,9.369838E3,1.7317182E4,1.8353064E4,1.9417443E4,2.0743918E4,2.1901457E4,2.3326848E4,2.4180521E4,2.5186617E4,2.6326197E4,2.7211035E4,2.8385666E4,2.9600994E4,3.091829E4,3.2325996E4,3.362037E4,3.506738E4,3.6344633E4,3.7619203E4,3.8724016E4,3.9989977E4,4.1912492E4,4.33248E4,4.4829953E4,4.6682723E4,4.9347953E4,5.149801E4,5.327207E4,5.516417E4,5.7004363E4,5.8783844E4,6.0786047E4,6.3358086E4],"categories":[],"categories_nodes":[],"categories_segments":[],"categories_sizes":[],"default_left":[1,1,1,1,1,1,1,1,1,1,1,1,1,1,1,1,1,1,1,1,1,1,1,1,1,1,1,0,0,1,1,1,1,1,1,0,0,0,0,1,1,1,1,1,1,1,1,1,1,1,1,1,1,1,1,0,0,0,0,0,0,0,0,0,0,0,0,0,0,0,0,0,0,0,0,0,0,0,0,0,0,0,0,0,0,0,0,0,0,0,0,0,0,0,0,0,0,0,0],"id":1,"left_children":[1,3,5,7,9,11,13,15,17,19,21,23,25,27,29,31,33,35,37,39,41,43,45,47,49,51,53,-1,-1,55,57,59,61,63,65,-1,-1,-1,-1,67,69,71,73,75,77,79,81,83,85,87,89,91,93,95,97,-1,-1,-1,-1,-1,-1,-1,-1,-1,-1,-1,-1,-1,-1,-1,-1,-1,-1,-1,-1,-1,-1,-1,-1,-1,-1,-1,-1,-1,-1,-1,-1,-1,-1,-1,-1,-1,-1,-1,-1,-1,-1,-1,-1],"loss_changes":[4.071842E13,6.26711E12,7.16466E12,3.1881652E11,1.0753587E12,2.9929714E12,9.968183E10,1.046819E11,2.6356089E10,1.72604E11,2.015468E11,1.7222651E11,3.6794112E11,5.681185E9,3.6423336E10,4.2847764E9,1.5547957E10,8.250982E7,2.153513E8,1.9344654E10,9.461826E9,9.762767E9,2.4023925E10,1.1695817E10,2.3767024E10,4.5428507E10,5.303278E10,0E0,0E0,4.9702502E8,3.049259E9,1.821737E8,1.8741658E8,1.5705702E9,1.34434E9,0E0,0E0,0E0,0E0,1.7849385E9,2.4190648E9,1.6210985E9,1.4758707E9,8.912896E8,2.4562893E8,1.6452157E9,2.6182943E9,6.364856E8,1.145045E9,1.4166262E9,1.4512292E9,4.471128E9,3.504341E9,1.9377684E9,7.862223E9,0E0,0E0,0E0,0E0,0E0,0E0,0E0,0E0,0E0,0E0,0E0,0E0,0E0,0E0,0E0,0E0,0E0,0E0,0E0,0E0,0E0,0E0,0E0,0E0,0E0,0E0,0E0,0E0,0E0,0E0,0E0,0E0,0E0,0E0,0E0,0E0,0E0,0E0,0E0,0E0,0E0,0E0,0E0,0E0],"parents":[2147483647,0,0,1,1,2,2,3,3,4,4,5,5,6,6,7,7,8,8,9,9,10,10,11,11,12,12,13,13,14,14,15,15,16,16,17,17,18,18,19,19,20,20,21,21,22,22,23,23,24,24,25,25,26,26,29,29,30,30,31,31,32,32,33,33,34,34,39,39,40,40,41,41,42,42,43,43,44,44,45,45,46,46,47,47,48,48,49,49,50,50,51,51,52,52,53,53,54,54],"right_children":[2,4,6,8,10,12,14,16,18,20,22,24,26,28,30,32,34,36,38,40,42,44,46,48,50,52,54,-1,-1,56,58,60,62,64,66,-1,-1,-1,-1,68,70,72,74,76,78,80,82,84,86,88,90,92,94,96,98,-1,-1,-1,-1,-1,-1,-1,-1,-1,-1,-1,-1,-1,-1,-1,-1,-1,-1,-1,-1,-1,-1,-1,-1,-1,-1,-1,-1,-1,-1,-1,-1,-1,-1,-1,-1,-1,-1,-1,-1,-1,-1,-1,-1],"split_conditions":[3.9853492E4,1.851657E4,7.500813E4,1.1277845E4,2.8717404E4,5.380028E4,8.924535E4,6.449865E3,1.480514E4,2.3806004E4,3.3601547E4,4.5607055E4,6.2510383E4,8.1627016E4,9.759815E4,4.53423E3,8.887551E3,1.2214145E4,1.727542E4,2.1124945E4,2.63397E4,3.0922865E4,3.661945E4,4.242393E4,4.905052E4,5.838804E4,6.640734E4,6.94184E3,7.8235796E3,9.4115766E4,1.0216718E5,3.726545E3,5.4755146E3,7.84275E3,9.867029E3,1.0480686E3,1.1377819E3,1.5072229E3,1.5973627E3,1.9776379E4,2.2256766E4,2.5084105E4,2.7396129E4,2.9709254E4,3.2181352E4,3.5106215E4,3.80849E4,4.1081547E4,4.3699145E4,4.7325188E4,5.0809176E4,5.5918023E4,6.0159992E4,6.4248906E4,6.887371E4,8.278621E3,8.622919E3,8.947613E3,9.430106E3,3.1977374E2,3.5324722E2,4.656797E2,5.2683655E2,6.593518E2,7.4400024E2,8.443468E2,9.369838E2,1.7317181E3,1.8353065E3,1.9417444E3,2.0743918E3,2.1901458E3,2.3326848E3,2.4180522E3,2.5186619E3,2.6326199E3,2.7211035E3,2.8385667E3,2.9600994E3,3.0918289E3,3.2325996E3,3.362037E3,3.506738E3,3.6344634E3,3.7619204E3,3.8724016E3,3.9989978E3,4.1912495E3,4.33248E3,4.4829956E3,4.6682725E3,4.9347954E3,5.1498013E3,5.327207E3,5.5164175E3,5.7004365E3,5.8783843E3,6.078605E3,6.3358086E3],"split_indices":[0,0,0,0,0,0,3,0,0,0,0,0,0,0,0,0,0,2,0,0,0,0,0,0,0,0,0,0,0,0,0,0,3,0,0,0,0,0,0,0,0,0,0,0,0,0,0,0,0,0,0,0,0,0,0,0,0,0,0,0,0,0,0,0,0,0,0,0,0,0,0,0,0,0,0,0,0,0,0,0,0,0,0,0,0,0,0,0,0,0,0,0,0,0,0,0,0,0,0],"split_type":[0,0,0,0,0,0,0,0,0,0,0,0,0,0,0,0,0,0,0,0,0,0,0,0,0,0,0,0,0,0,0,0,0,0,0,0,0,0,0,0,0,0,0,0,0,0,0,0,0,0,0,0,0,0,0,0,0,0,0,0,0,0,0,0,0,0,0,0,0,0,0,0,0,0,0,0,0,0,0,0,0,0,0,0,0,0,0,0,0,0,0,0,0,0,0,0,0,0,0],"sum_hessian":[1.41749E5,8.4418E4,5.7331E4,3.3094E4,5.1324E4,5.1463E4,5.868E3,2.6294E4,6.8E3,2.7397E4,2.3927E4,2.2909E4,2.8554E4,5.77E2,5.291E3,1.0029E4,1.6265E4,1.718E3,5.082E3,1.4653E4,1.2744E4,1.123E4,1.2697E4,1.2285E4,1.0624E4,1.4543E4,1.4011E4,3.27E2,2.5E2,2.963E3,2.328E3,6.992E3,3.037E3,9.121E3,7.144E3,1.426E3,2.92E2,4.457E3,6.25E2,7.939E3,6.714E3,4.471E3,8.273E3,8.288E3,2.942E3,5.365E3,7.332E3,5.369E3,6.916E3,6.483E3,4.141E3,6.909E3,7.634E3,6.715E3,7.296E3,9.7E2,1.993E3,1.638E3,6.9E2,3.117E3,3.875E3,2.292E3,7.45E2,4.14E3,4.981E3,2.627E3,4.517E3,3.539E3,4.4E3,2.663E3,4.051E3,1.697E3,2.774E3,4.434E3,3.839E3,3.778E3,4.51E3,1.452E3,1.49E3,2.898E3,2.467E3,3.308E3,4.024E3,1.948E3,3.421E3,4.071E3,2.845E3,3.269E3,3.214E3,1.981E3,2.16E3,2.271E3,4.638E3,2.934E3,4.7E3,3.642E3,3.073E3,4.299E3,2.997E3],"tree_param":{"num_deleted":"0","num_feature":"20","num_nodes":"99","size_leaf_vector":"0"}},{"base_weights":[2.9371963E4,1.6723883E4,4.777103E4,7.1324194E3,2.2945188E4,4.436972E4,7.755114E4,5.6897183E3,1.2502874E4,1.913545E4,2.7312309E4,3.6694816E4,5.0581137E4,6.5131812E4,7.88832E4,3.4437402E3,7.107142E3,9.529693E3,1.365604E4,1.7007518E4,2.1513973E4,2.457214E4,2.9768875E4,3.4417324E4,3.940304E4,4.731274E4,5.3814684E4,6.1866926E4,6.936079E4,7.6340664E4,8.162062E4,3.0466392E3,4.346484E3,6.3280005E3,8.0553853E3,9.396446E3,1.023523E4,1.3452793E4,1.3994548E4,1.6050006E4,1.8087572E4,2.0360451E4,2.2118598E4,2.4085352E4,2.5955781E4,2.8216207E4,3.0796172E4,3.3241332E4,3.5214617E4,3.822478E4,4.098781E4,4.556163E4,4.879961E4,5.1830047E4,5.551434E4,7.374674E4,7.7174914E4,8.003425E4,8.424643E4,2.8902676E3,3.1934443E3,4.209118E3,4.8385957E3,5.882011E3,6.62616E3,7.5290527E3,8.372628E3,1.5537821E4,1.6435465E4,1.7404785E4,1.8588785E4,1.9621635E4,2.0922223E4,2.1689025E4,2.259261E4,2.3649713E4,2.4447682E4,2.542859E4,2.6475205E4,2.7686834E4,2.88282E4,3.0065203E4,3.1398723E4,3.2549834E4,3.3687266E4,3.467418E4,3.583805E4,3.7473164E4,3.8703E4,4.0104266E4,4.1795645E4,4.424812E4,4.61797E4,4.7765215E4,4.948759E4,5.1113258E4,5.2608316E4,5.4531383E4,5.68464E4],"categories":[],"categories_nodes":[],"categories_segments":[],"categories_sizes":[],"default_left":[1,1,1,1,1,1,1,1,1,1,1,1,1,1,1,1,1,1,1,1,1,1,1,1,1,1,1,0,0,1,1,1,1,1,1,0,0,0,0,1,1,1,1,1,1,1,1,1,1,1,1,1,1,1,1,0,0,0,0,0,0,0,0,0,0,0,0,0,0,0,0,0,0,0,0,0,0,0,0,0,0,0,0,0,0,0,0,0,0,0,0,0,0,0,0,0,0,0,0],"id":2,"left_children":[1,3,5,7,9,11,13,15,17,19,21,23,25,27,29,31,33,35,37,39,41,43,45,47,49,51,53,-1,-1,55,57,59,61,63,65,-1,-1,-1,-1,67,69,71,73,75,77,79,81,83,85,87,89,91,93,95,97,-1,-1,-1,-1,-1,-1,-1,-1,-1,-1,-1,-1,-1,-1,-1,-1,-1,-1,-1,-1,-1,-1,-1,-1,-1,-1,-1,-1,-1,-1,-1,-1,-1,-1,-1,-1,-1,-1,-1,-1,-1,-1,-1,-1],"loss_changes":[3.2986246E13,5.012535E12,5.8457273E12,2.5601442E11,8.4723053E11,2.4689435E12,9.276542E10,8.292172E10,2.3862968E10,1.3738862E11,1.590585E11,1.4166052E11,3.0016956E11,3.7033083E9,3.0937186E10,3.601318E9,1.1750146E10,8.798208E7,1.5853158E8,1.457075E10,8.510767E9,6.9368545E9,1.9088278E10,1.0645144E10,1.8199085E10,3.488822E10,4.5671776E10,0E0,0E0,3.3344717E8,3.9090913E9,1.5160525E8,1.877074E8,1.1276124E9,1.1393434E9,0E0,0E0,0E0,0E0,1.2502958E9,1.9849544E9,1.4284227E9,1.2239503E9,7.350518E8,1.2333875E8,8.197243E8,2.368209E9,4.7972352E8,1.2824084E9,7.371489E8,1.5361638E9,3.282043E9,3.1121736E9,1.0234102E9,7.0317507E9,0E0,0E0,0E0,0E0,0E0,0E0,0E0,0E0,0E0,0E0,0E0,0E0,0E0,0E0,0E0,0E0,0E0,0E0,0E0,0E0,0E0,0E0,0E0,0E0,0E0,0E0,0E0,0E0,0E0,0E0,0E0,0E0,0E0,0E0,0E0,0E0,0E0,0E0,0E0,0E0,0E0,0E0,0E0,0E0],"parents":[2147483647,0,0,1,1,2,2,3,3,4,4,5,5,6,6,7,7,8,8,9,9,10,10,11,11,12,12,13,13,14,14,15,15,16,16,17,17,18,18,19,19,20,20,21,21,22,22,23,23,24,24,25,25,26,26,29,29,30,30,31,31,32,32,33,33,34,34,39,39,40,40,41,41,42,42,43,43,44,44,45,45,46,46,47,47,48,48,49,49,50,50,51,51,52,52,53,53,54,54],"right_children":[2,4,6,8,10,12,14,16,18,20,22,24,26,28,30,32,34,36,38,40,42,44,46,48,50,52,54,-1,-1,56,58,60,62,64,66,-1,-1,-1,-1,68,70,72,74,76,78,80,82,84,86,88,90,92,94,96,98,-1,-1,-1,-1,-1,-1,-1,-1,-1,-1,-1,-1,-1,-1,-1,-1,-1,-1,-1,-1,-1,-1,-1,-1,-1,-1,-1,-1,-1,-1,-1,-1,-1,-1,-1,-1,-1,-1,-1,-1,-1,-1,-1,-1],"split_conditions":[3.9675758E4,1.8408734E4,7.4382305E4,1.1120645E4,2.8571246E4,5.3525492E4,8.87693E4,6.658575E3,1.480514E4,2.3667875E4,3.3433977E4,4.546722E4,6.2232926E4,8.0297E4,9.720784E4,4.6455E3,8.76109E3,1.2126425E4,1.6895625E4,2.096957E4,2.618915E4,3.077951E4,3.6346703E4,4.219943E4,4.8796465E4,5.8104656E4,6.612554E4,6.186693E3,6.936079E3,9.3269414E4,1.0145633E5,3.79146E3,5.6251797E3,7.64359E3,9.7606E3,9.3964465E2,1.0235231E3,1.3452793E3,1.3994548E3,1.966781E4,2.2147535E4,2.4914531E4,2.729495E4,2.9625066E4,3.196729E4,3.482985E4,3.7852516E4,4.0807145E4,4.3483508E4,4.695094E4,5.046083E4,5.56656E4,5.9890703E4,6.39486E4,6.85779E4,7.3746743E3,7.7174917E3,8.0034253E3,8.424644E3,2.8902676E2,3.1934445E2,4.2091183E2,4.838596E2,5.882011E2,6.62616E2,7.529053E2,8.372628E2,1.5537821E3,1.6435465E3,1.7404785E3,1.8588785E3,1.9621635E3,2.0922224E3,2.1689026E3,2.259261E3,2.3649714E3,2.4447683E3,2.5428591E3,2.6475205E3,2.7686833E3,2.88282E3,3.0065203E3,3.1398723E3,3.2549834E3,3.3687266E3,3.467418E3,3.5838052E3,3.7473164E3,3.8703E3,4.0104265E3,4.1795645E3,4.424812E3,4.61797E3,4.7765215E3,4.9487593E3,5.1113257E3,5.2608315E3,5.453138E3,5.68464E3],"split_indices":[0,0,0,0,0,0,0,0,0,0,0,0,0,0,0,18,0,0,0,0,0,0,0,0,0,0,0,0,0,0,2,0,6,0,0,0,0,0,0,0,0,0,0,0,0,0,0,0,0,0,0,0,0,0,0,0,0,0,0,0,0,0,0,0,0,0,0,0,0,0,0,0,0,0,0,0,0,0,0,0,0,0,0,0,0,0,0,0,0,0,0,0,0,0,0,0,0,0,0],"split_type":[0,0,0,0,0,0,0,0,0,0,0,0,0,0,0,0,0,0,0,0,0,0,0,0,0,0,0,0,0,0,0,0,0,0,0,0,0,0,0,0,0,0,0,0,0,0,0,0,0,0,0,0,0,0,0,0,0,0,0,0,0,0,0,0,0,0,0,0,0,0,0,0,0,0,0,0,0,0,0,0,0,0,0,0,0,0,0,0,0,0,0,0,0,0,0,0,0,0,0],"sum_hessian":[1.41749E5,8.4004E4,5.7745E4,3.3051E4,5.0953E4,5.1828E4,5.917E3,2.6054E4,6.997E3,2.7216E4,2.3737E4,2.3186E4,2.8642E4,5.78E2,5.339E3,1.0082E4,1.5972E4,1.958E3,5.039E3,1.4369E4,1.2847E4,1.1226E4,1.2511E4,1.2602E4,1.0584E4,1.4252E4,1.439E4,3.35E2,2.43E2,2.783E3,2.556E3,7.005E3,3.077E3,8.772E3,7.2E3,1.659E3,2.99E2,3.174E3,1.865E3,7.625E3,6.744E3,4.43E3,8.417E3,8.318E3,2.908E3,4.993E3,7.518E3,5.109E3,7.493E3,6.085E3,4.499E3,6.559E3,7.693E3,6.653E3,7.737E3,6.99E2,2.084E3,1.613E3,9.43E2,3.402E3,3.603E3,2.413E3,6.64E2,3.523E3,5.249E3,2.717E3,4.483E3,3.292E3,4.333E3,2.87E3,3.874E3,1.929E3,2.501E3,4.44E3,3.977E3,3.807E3,4.511E3,1.468E3,1.44E3,2.702E3,2.291E3,3.42E3,4.098E3,2.032E3,3.077E3,4.044E3,3.449E3,2.397E3,3.688E3,2.173E3,2.326E3,2.122E3,4.437E3,3.101E3,4.592E3,3.498E3,3.155E3,4.476E3,3.261E3],"tree_param":{"num_deleted":"0","num_feature":"20","num_nodes":"99","size_leaf_vector":"0"}},{"base_weights":[2.6435898E4,1.5244588E4,4.3281438E4,6.490323E3,2.088737E4,4.0177824E4,6.976418E4,5.299837E3,1.21064E4,1.759962E4,2.5199316E4,3.3450312E4,4.5696953E4,5.7860953E4,7.093056E4,3.1123318E3,6.5781875E3,9.059535E3,1.2369634E4,1.5497818E4,1.9826906E4,2.2742348E4,2.729458E4,3.1377096E4,3.600872E4,4.3181766E4,4.889495E4,5.524816E4,6.1162684E4,6.8236305E4,7.312185E4,2.7440645E3,3.9380583E3,5.808495E3,7.5940103E3,1.2227104E4,1.3341454E4,1.4683245E4,1.6707748E4,1.905158E4,2.0576893E4,2.201869E4,2.4137666E4,2.6192043E4,2.829966E4,3.062154E4,3.2468936E4,3.4973223E4,3.788549E4,4.1668746E4,4.475743E4,4.759458E4,5.0541457E4,7.173858E4,7.569952E4,2.5799739E3,2.861564E3,3.8021868E3,4.4326016E3,5.484576E3,6.2940107E3,7.2894644E3,8.251826E3,1.1926709E4,1.2362042E4,1.4257229E4,1.5277939E4,1.6181214E4,1.7097234E4,1.8294951E4,1.9299793E4,2.0129143E4,2.1054625E4,2.1710387E4,2.242783E4,2.3507955E4,2.4590916E4,2.5526574E4,2.673127E4,2.781314E4,2.886505E4,2.9970568E4,3.103507E4,3.196023E4,3.3234793E4,3.4411023E4,3.5718047E4,3.7246773E4,3.914357E4,4.072625E4,4.244813E4,4.4028664E4,4.5500723E4,4.676665E4,4.8401715E4,4.998225E4,5.2210496E4],"categories":[],"categories_nodes":[],"categories_segments":[],"categories_sizes":[],"default_left":[1,1,1,1,1,1,1,1,1,1,1,1,1,1,1,1,1,0,1,1,1,1,1,1,1,1,1,0,0,0,1,1,1,1,1,1,0,1,1,1,1,1,1,1,1,1,1,1,1,1,1,1,1,0,0,0,0,0,0,0,0,0,0,0,0,0,0,0,0,0,0,0,0,0,0,0,0,0,0,0,0,0,0,0,0,0,0,0,0,0,0,0,0,0,0,0,0],"id":3,"left_children":[1,3,5,7,9,11,13,15,17,19,21,23,25,27,29,31,33,-1,35,37,39,41,43,45,47,49,51,-1,-1,-1,53,55,57,59,61,63,-1,65,67,69,71,73,75,77,79,81,83,85,87,89,91,93,95,-1,-1,-1,-1,-1,-1,-1,-1,-1,-1,-1,-1,-1,-1,-1,-1,-1,-1,-1,-1,-1,-1,-1,-1,-1,-1,-1,-1,-1,-1,-1,-1,-1,-1,-1,-1,-1,-1,-1,-1,-1,-1,-1,-1],"loss_changes":[2.6722573E13,4.207126E12,4.6477167E12,2.2313003E11,7.3373476E11,1.8790314E12,7.828249E10,7.700919E10,4.5702185E9,1.3726279E11,1.1470478E11,1.1995919E11,2.2166058E11,1.2362711E9,2.689178E10,3.07934E9,1.3548716E10,0E0,5.808456E8,1.4660665E10,7.902593E9,9.885975E9,1.2652118E10,9.415164E9,1.8520998E10,3.528039E10,2.3802675E10,0E0,0E0,0E0,5.1380224E9,1.2818022E8,1.9360154E8,1.5216476E9,1.4405468E9,4.292608E7,0E0,2.0742144E9,9.698017E8,9.667871E8,1.1243356E9,3.717202E8,4.2467328E8,1.390936E9,9.3323264E8,1.0821304E9,9.4214554E8,1.5324938E9,1.4501806E9,4.1209037E9,2.124415E9,2.3184015E9,2.4180163E9,0E0,0E0,0E0,0E0,0E0,0E0,0E0,0E0,0E0,0E0,0E0,0E0,0E0,0E0,0E0,0E0,0E0,0E0,0E0,0E0,0E0,0E0,0E0,0E0,0E0,0E0,0E0,0E0,0E0,0E0,0E0,0E0,0E0,0E0,0E0,0E0,0E0,0E0,0E0,0E0,0E0,0E0,0E0,0E0],"parents":[2147483647,0,0,1,1,2,2,3,3,4,4,5,5,6,6,7,7,8,8,9,9,10,10,11,11,12,12,13,13,14,14,15,15,16,16,18,18,19,19,20,20,21,21,22,22,23,23,24,24,25,25,26,26,30,30,31,31,32,32,33,33,34,34,35,35,37,37,38,38,39,39,40,40,41,41,42,42,43,43,44,44,45,45,46,46,47,47,48,48,49,49,50,50,51,51,52,52],"right_children":[2,4,6,8,10,12,14,16,18,20,22,24,26,28,30,32,34,-1,36,38,40,42,44,46,48,50,52,-1,-1,-1,54,56,58,60,62,64,-1,66,68,70,72,74,76,78,80,82,84,86,88,90,92,94,96,-1,-1,-1,-1,-1,-1,-1,-1,-1,-1,-1,-1,-1,-1,-1,-1,-1,-1,-1,-1,-1,-1,-1,-1,-1,-1,-1,-1,-1,-1,-1,-1,-1,-1,-1,-1,-1,-1,-1,-1,-1,-1,-1,-1],"split_conditions":[4.0218234E4,1.889564E4,7.415817E4,1.1895585E4,2.933548E4,5.445759E4,8.796391E4,6.808435E3,1.480514E4,2.424908E4,3.4340203E4,4.633593E4,6.32635E4,7.928139E4,9.660721E4,4.73584E3,9.268455E3,9.0595355E2,1.748857E4,2.155914E4,2.7110281E4,3.1628436E4,3.740814E4,4.3261656E4,4.9982605E4,5.9292625E4,6.7383414E4,5.524816E3,6.1162686E3,6.8236304E3,1.00945055E5,3.68758E3,5.72208E3,8.124025E3,1.063629E4,1.665983E4,1.3341454E3,2.031786E4,2.2892898E4,2.5830734E4,2.818895E4,3.0271504E4,3.2959984E4,3.5867227E4,3.8911023E4,4.1830703E4,4.468184E4,4.8119836E4,5.2268258E4,5.7124227E4,6.1389992E4,6.5295062E4,7.014917E4,7.173858E3,7.5699526E3,2.579974E2,2.861564E2,3.802187E2,4.4326016E2,5.4845764E2,6.2940106E2,7.289465E2,8.251826E2,1.1926709E3,1.2362042E3,1.4257229E3,1.527794E3,1.6181215E3,1.7097235E3,1.8294951E3,1.9299794E3,2.0129143E3,2.1054626E3,2.1710388E3,2.242783E3,2.3507957E3,2.4590916E3,2.5526575E3,2.673127E3,2.7813142E3,2.8865051E3,2.997057E3,3.103507E3,3.1960232E3,3.3234792E3,3.4411023E3,3.5718047E3,3.7246775E3,3.9143572E3,4.072625E3,4.244813E3,4.4028667E3,4.5500723E3,4.676665E3,4.8401714E3,4.998225E3,5.22105E3],"split_indices":[0,0,0,0,0,0,0,0,0,0,0,0,0,7,0,0,0,0,0,0,0,0,0,0,0,0,0,0,0,0,0,0,0,0,0,0,0,0,0,0,0,0,0,0,0,0,0,0,0,0,0,0,0,0,0,0,0,0,0,0,0,0,0,0,0,0,0,0,0,0,0,0,0,0,0,0,0,0,0,0,0,0,0,0,0,0,0,0,0,0,0,0,0,0,0,0,0],"split_type":[0,0,0,0,0,0,0,0,0,0,0,0,0,0,0,0,0,0,0,0,0,0,0,0,0,0,0,0,0,0,0,0,0,0,0,0,0,0,0,0,0,0,0,0,0,0,0,0,0,0,0,0,0,0,0,0,0,0,0,0,0,0,0,0,0,0,0,0,0,0,0,0,0,0,0,0,0,0,0,0,0,0,0,0,0,0,0,0,0,0,0,0,0,0,0,0,0],"sum_hessian":[1.41749E5,8.5169E4,5.658E4,3.3382E4,5.1787E4,5.0647E4,5.933E3,2.7545E4,5.837E3,2.9386E4,2.2401E4,2.2828E4,2.7819E4,5.34E2,5.399E3,1.0161E4,1.7384E4,4.67E2,5.37E3,1.5123E4,1.4263E4,1.0316E4,1.2085E4,1.2617E4,1.0211E4,1.558E4,1.2239E4,3.08E2,2.26E2,2.436E3,2.963E3,7.03E3,3.131E3,9.894E3,7.49E3,4.695E3,6.75E2,9.046E3,6.077E3,7.026E3,7.237E3,6.804E3,3.512E3,5.776E3,6.309E3,7.474E3,5.143E3,6.593E3,3.618E3,7.962E3,7.618E3,6.855E3,5.384E3,1.947E3,1.016E3,2.943E3,4.087E3,2.463E3,6.68E2,5.942E3,3.952E3,5.128E3,2.362E3,1.483E3,3.212E3,5.285E3,3.761E3,2.602E3,3.475E3,1.754E3,5.272E3,3.758E3,3.479E3,3.911E3,2.893E3,1.492E3,2.02E3,2.607E3,3.169E3,3.418E3,2.891E3,2.932E3,4.542E3,3.116E3,2.027E3,3.784E3,2.809E3,2.42E3,1.198E3,3.628E3,4.334E3,3.877E3,3.741E3,3.413E3,3.442E3,4.056E3,1.328E3],"tree_param":{"num_deleted":"0","num_feature":"20","num_nodes":"97","size_leaf_vector":"0"}},{"base_weights":[2.37933E4,1.3483306E4,3.860714E4,5.768122E3,1.8517379E4,3.585541E4,6.276469E4,4.601958E3,1.0094889E4,1.544696E4,2.199872E4,2.9636889E4,4.094606E4,5.371632E4,6.4060164E4,2.7689312E3,5.7378486E3,7.7199424E3,1.1048171E4,1.3743865E4,1.7357838E4,1.9849855E4,2.4025922E4,2.7766428E4,3.1821855E4,3.8250062E4,4.3535027E4,5.05185E4,5.766453E4,6.2553414E4,6.7007555E4,2.4663677E3,3.482495E3,5.0632954E3,6.4707856E3,7.634627E3,8.430016E3,1.07909E4,1.1223179E4,1.2948736E4,1.4578558E4,1.6384352E4,1.784437E4,1.94402E4,2.0901342E4,2.2776096E4,2.4836477E4,2.6808312E4,2.8423738E4,3.0826262E4,3.3063867E4,3.672027E4,3.9364008E4,4.1900695E4,4.491987E4,6.099716E4,6.3693406E4,6.5904E4,6.953427E4,2.3620679E3,2.617317E3,3.3569475E3,3.728556E3,4.707289E3,5.3063564E3,6.016397E3,6.7611714E3,1.2542913E4,1.3258113E4,1.4038697E4,1.5005514E4,1.5837935E4,1.6868262E4,1.7443248E4,1.8155377E4,1.9100166E4,1.9741764E4,2.0504049E4,2.1376545E4,2.231586E4,2.3193463E4,2.4203438E4,2.5274902E4,2.6297031E4,2.7216184E4,2.8013963E4,2.8883418E4,3.0187941E4,3.1210127E4,3.2393387E4,3.3768348E4,3.574176E4,3.7239555E4,3.8561793E4,3.9997773E4,4.1309465E4,4.2495152E4,4.404686E4,4.5942535E4],"categories":[],"categories_nodes":[],"categories_segments":[],"categories_sizes":[],"default_left":[1,1,1,1,1,1,1,1,1,1,1,1,1,1,1,1,1,1,1,1,1,1,1,1,1,1,1,0,0,1,1,1,1,1,1,0,0,0,0,1,1,1,1,1,1,1,1,1,1,1,1,1,1,1,1,0,0,0,0,0,0,0,0,0,0,0,0,0,0,0,0,0,0,0,0,0,0,0,0,0,0,0,0,0,0,0,0,0,0,0,0,0,0,0,0,0,0,0,0],"id":4,"left_children":[1,3,5,7,9,11,13,15,17,19,21,23,25,27,29,31,33,35,37,39,41,43,45,47,49,51,53,-1,-1,55,57,59,61,63,65,-1,-1,-1,-1,67,69,71,73,75,77,79,81,83,85,87,89,91,93,95,97,-1,-1,-1,-1,-1,-1,-1,-1,-1,-1,-1,-1,-1,-1,-1,-1,-1,-1,-1,-1,-1,-1,-1,-1,-1,-1,-1,-1,-1,-1,-1,-1,-1,-1,-1,-1,-1,-1,-1,-1,-1,-1,-1,-1],"loss_changes":[2.1649043E13,3.2461197E12,3.864531E12,1.6648241E11,5.403071E11,1.651977E12,6.6270003E10,5.411714E10,1.5776285E10,8.7236805E10,1.02769885E11,9.520441E10,1.987471E11,6.5688044E9,1.8889048E10,2.13939E9,7.9029207E9,5.7401344E7,1.0387456E8,9.246867E9,5.705302E9,4.5523927E9,1.1784946E10,7.2204943E9,1.2381585E10,2.2538093E10,3.1253856E10,0E0,0E0,2.242904E9,2.8101837E8,1.0387046E8,7.892173E7,6.986957E8,9.738977E8,0E0,0E0,0E0,0E0,7.489454E8,1.3862175E9,8.518369E8,7.353139E8,4.7395635E8,1.685586E8,4.0606106E8,1.4375977E9,3.6359373E8,6.039798E8,5.3529805E8,1.1770266E9,1.6903045E9,2.5910313E9,6.102712E8,5.040505E9,0E0,0E0,0E0,0E0,0E0,0E0,0E0,0E0,0E0,0E0,0E0,0E0,0E0,0E0,0E0,0E0,0E0,0E0,0E0,0E0,0E0,0E0,0E0,0E0,0E0,0E0,0E0,0E0,0E0,0E0,0E0,0E0,0E0,0E0,0E0,0E0,0E0,0E0,0E0,0E0,0E0,0E0,0E0,0E0],"parents":[2147483647,0,0,1,1,2,2,3,3,4,4,5,5,6,6,7,7,8,8,9,9,10,10,11,11,12,12,13,13,14,14,15,15,16,16,17,17,18,18,19,19,20,20,21,21,22,22,23,23,24,24,25,25,26,26,29,29,30,30,31,31,32,32,33,33,34,34,39,39,40,40,41,41,42,42,43,43,44,44,45,45,46,46,47,47,48,48,49,49,50,50,51,51,52,52,53,53,54,54],"right_children":[2,4,6,8,10,12,14,16,18,20,22,24,26,28,30,32,34,36,38,40,42,44,46,48,50,52,54,-1,-1,56,58,60,62,64,66,-1,-1,-1,-1,68,70,72,74,76,78,80,82,84,86,88,90,92,94,96,98,-1,-1,-1,-1,-1,-1,-1,-1,-1,-1,-1,-1,-1,-1,-1,-1,-1,-1,-1,-1,-1,-1,-1,-1,-1,-1,-1,-1,-1,-1,-1,-1,-1,-1,-1,-1,-1,-1,-1,-1,-1,-1,-1,-1],"split_conditions":[3.947693E4,1.824554E4,7.3633984E4,1.104993E4,2.841398E4,5.321455E4,9.030641E4,6.2724346E3,1.3787605E4,2.351295E4,3.332853E4,4.5156633E4,6.208403E4,8.238745E4,9.856361E4,4.178815E3,8.63065E3,1.2400715E4,1.676129E4,2.0832238E4,2.6086635E4,3.0612775E4,3.6184312E4,4.207605E4,4.8542844E4,5.7787188E4,6.598044E4,5.05185E3,5.766453E3,9.508905E4,1.0352328E5,3.842365E3,5.329255E3,7.5387354E3,9.67966E3,7.634627E2,8.430016E2,1.0790901E3,1.1223179E3,1.956242E4,2.200386E4,2.478742E4,2.702911E4,2.9530975E4,3.1870254E4,3.461155E4,3.761404E4,4.0721E4,4.3315297E4,4.672842E4,5.035303E4,5.548667E4,5.9718953E4,6.3777695E4,6.8313016E4,6.0997163E3,6.369341E3,6.5904E3,6.9534272E3,2.3620679E2,2.617317E2,3.3569476E2,3.728556E2,4.707289E2,5.306357E2,6.016397E2,6.761171E2,1.2542914E3,1.3258114E3,1.4038698E3,1.5005514E3,1.5837935E3,1.6868262E3,1.7443248E3,1.8155377E3,1.9100166E3,1.9741764E3,2.050405E3,2.1376545E3,2.231586E3,2.3193464E3,2.4203438E3,2.5274902E3,2.6297031E3,2.7216184E3,2.8013962E3,2.8883418E3,3.0187942E3,3.1210127E3,3.2393386E3,3.3768347E3,3.5741763E3,3.7239556E3,3.8561794E3,3.9997773E3,4.130947E3,4.249515E3,4.404686E3,4.5942534E3],"split_indices":[0,0,0,0,0,0,0,1,0,0,0,0,0,0,0,3,0,2,0,0,0,0,0,0,0,0,0,0,0,0,0,0,0,0,0,0,0,0,0,0,0,0,0,0,0,0,0,0,0,0,0,0,0,0,0,0,0,0,0,0,0,0,0,0,0,0,0,0,0,0,0,0,0,0,0,0,0,0,0,0,0,0,0,0,0,0,0,0,0,0,0,0,0,0,0,0,0,0,0],"split_type":[0,0,0,0,0,0,0,0,0,0,0,0,0,0,0,0,0,0,0,0,0,0,0,0,0,0,0,0,0,0,0,0,0,0,0,0,0,0,0,0,0,0,0,0,0,0,0,0,0,0,0,0,0,0,0,0,0,0,0,0,0,0,0,0,0,0,0,0,0,0,0,0,0,0,0,0,0,0,0,0,0,0,0,0,0,0,0,0,0,0,0,0,0,0,0,0,0,0,0],"sum_hessian":[1.41749E5,8.3581E4,5.8168E4,3.3003E4,5.0578E4,5.2222E4,5.946E3,2.5998E4,7.005E3,2.6878E4,2.37E4,2.351E4,2.8712E4,7.5E2,5.196E3,9.948E3,1.605E4,2.009E3,4.996E3,1.4216E4,1.2662E4,1.151E4,1.219E4,1.2674E4,1.0836E4,1.4073E4,1.4639E4,4.22E2,3.28E2,3.453E3,1.743E3,6.989E3,2.959E3,8.362E3,7.688E3,1.804E3,2.05E2,2.048E3,2.948E3,7.289E3,6.927E3,4.231E3,8.431E3,8.297E3,3.213E3,4.807E3,7.383E3,5.174E3,7.5E3,6.029E3,4.807E3,5.944E3,8.129E3,6.729E3,7.91E3,1.483E3,1.97E3,1.232E3,5.11E2,4.143E3,2.846E3,1.969E3,9.9E2,3.401E3,4.961E3,3.006E3,4.682E3,3.171E3,4.118E3,3.074E3,3.853E3,2.003E3,2.228E3,3.707E3,4.724E3,3.93E3,4.367E3,1.774E3,1.439E3,2.312E3,2.495E3,3.044E3,4.339E3,2.325E3,2.849E3,3.998E3,3.502E3,2.294E3,3.735E3,2.487E3,2.32E3,2.085E3,3.859E3,3.615E3,4.514E3,3.409E3,3.32E3,4.291E3,3.619E3],"tree_param":{"num_deleted":"0","num_feature":"20","num_nodes":"99","size_leaf_vector":"0"}},{"base_weights":[2.141489E4,1.2121015E4,3.472753E4,5.178761E3,1.6643691E4,3.2246832E4,5.6440086E4,4.135544E3,9.043397E3,1.3865094E4,1.9750066E4,2.6657676E4,3.684367E4,4.8051887E4,5.7635164E4,2.4981914E3,5.162032E3,6.9395776E3,9.929155E3,1.2339004E4,1.55702E4,1.7834941E4,2.160073E4,2.4970525E4,2.8629277E4,3.4342652E4,3.9099613E4,4.5445258E4,5.1861812E4,5.6123707E4,6.005143E4,2.219802E3,3.144713E3,4.549588E3,5.8053413E3,6.8373926E3,7.4397427E3,9.69562E3,1.0069636E4,1.1615908E4,1.3064358E4,1.4336686E4,1.5899516E4,1.744828E4,1.8736184E4,2.0597932E4,2.241595E4,2.4089875E4,2.5557238E4,2.7768941E4,2.9798484E4,3.295246E4,3.5281434E4,3.7588664E4,4.036478E4,5.4672645E4,5.70683E4,5.9056297E4,6.2419703E4,2.0801367E3,2.3134175E3,3.0323306E3,3.4026724E3,4.2233047E3,4.751802E3,5.462229E3,6.1261973E3,1.124446E4,1.1873776E4,1.2600755E4,1.3468532E4,1.5492303E4,1.62528545E4,1.7139475E4,1.7712836E4,1.8300945E4,1.9115713E4,2.0194783E4,2.1129848E4,2.2044105E4,2.2913408E4,2.3631525E4,2.44506E4,2.5140518E4,2.593057E4,2.7208252E4,2.8157732E4,2.9252248E4,3.0462555E4,3.2089074E4,3.339042E4,3.460386E4,3.5869082E4,3.707025E4,3.8105785E4,3.989901E4,4.2006508E4],"categories":[],"categories_nodes":[],"categories_segments":[],"categories_sizes":[],"default_left":[1,1,1,1,1,1,1,1,1,1,1,1,1,1,1,1,1,1,1,1,1,1,1,1,1,1,1,0,0,1,1,1,1,1,1,0,0,0,0,1,1,0,1,1,1,1,1,1,1,1,1,1,1,1,1,0,0,0,0,0,0,0,0,0,0,0,0,0,0,0,0,0,0,0,0,0,0,0,0,0,0,0,0,0,0,0,0,0,0,0,0,0,0,0,0,0,0],"id":5,"left_children":[1,3,5,7,9,11,13,15,17,19,21,23,25,27,29,31,33,35,37,39,41,43,45,47,49,51,53,-1,-1,55,57,59,61,63,65,-1,-1,-1,-1,67,69,-1,71,73,75,77,79,81,83,85,87,89,91,93,95,-1,-1,-1,-1,-1,-1,-1,-1,-1,-1,-1,-1,-1,-1,-1,-1,-1,-1,-1,-1,-1,-1,-1,-1,-1,-1,-1,-1,-1,-1,-1,-1,-1,-1,-1,-1,-1,-1,-1,-1,-1,-1],"loss_changes":[1.7537748E13,2.620858E12,3.1370038E12,1.3272908E11,4.3600734E11,1.3427896E12,5.7115935E10,4.3573314E10,1.2973572E10,6.9243765E10,8.4191216E10,7.781168E10,1.6056215E11,5.101322E9,1.5708717E10,1.7919672E9,6.2534124E9,5.5279616E7,6.38976E7,7.236354E9,4.890034E9,3.7617664E9,9.455534E9,5.961679E9,1.0115613E10,1.6609444E10,2.731121E10,0E0,0E0,1.3065257E9,1.017643E9,8.658125E7,7.682662E7,5.1899597E8,8.219361E8,0E0,0E0,0E0,0E0,5.430313E8,1.1463557E9,0E0,1.177813E9,3.6857446E8,2.2976922E8,7.423918E8,7.305953E8,2.6660045E8,5.3424947E8,6.034555E8,7.767327E8,1.0092544E9,1.9891487E9,4.3411046E8,4.5906657E9,0E0,0E0,0E0,0E0,0E0,0E0,0E0,0E0,0E0,0E0,0E0,0E0,0E0,0E0,0E0,0E0,0E0,0E0,0E0,0E0,0E0,0E0,0E0,0E0,0E0,0E0,0E0,0E0,0E0,0E0,0E0,0E0,0E0,0E0,0E0,0E0,0E0,0E0,0E0,0E0,0E0,0E0],"parents":[2147483647,0,0,1,1,2,2,3,3,4,4,5,5,6,6,7,7,8,8,9,9,10,10,11,11,12,12,13,13,14,14,15,15,16,16,17,17,18,18,19,19,20,20,21,21,22,22,23,23,24,24,25,25,26,26,29,29,30,30,31,31,32,32,33,33,34,34,39,39,40,40,42,42,43,43,44,44,45,45,46,46,47,47,48,48,49,49,50,50,51,51,52,52,53,53,54,54],"right_children":[2,4,6,8,10,12,14,16,18,20,22,24,26,28,30,32,34,36,38,40,42,44,46,48,50,52,54,-1,-1,56,58,60,62,64,66,-1,-1,-1,-1,68,70,-1,72,74,76,78,80,82,84,86,88,90,92,94,96,-1,-1,-1,-1,-1,-1,-1,-1,-1,-1,-1,-1,-1,-1,-1,-1,-1,-1,-1,-1,-1,-1,-1,-1,-1,-1,-1,-1,-1,-1,-1,-1,-1,-1,-1,-1,-1,-1,-1,-1,-1,-1],"split_conditions":[3.9423555E4,1.7993254E4,7.325585E4,1.0962135E4,2.8318705E4,5.318108E4,9.007367E4,6.34899E3,1.3816125E4,2.3431555E4,3.327633E4,4.5102062E4,6.1859094E4,8.41988E4,9.816203E4,4.178815E3,8.572785E3,1.2029025E4,1.6727475E4,2.074123E4,2.56662E4,3.051641E4,3.648121E4,4.2001094E4,4.867011E4,5.7578992E4,6.578011E4,4.544526E3,5.186181E3,9.4700016E4,1.0295493E5,3.655645E3,5.37519E3,7.4890947E3,9.937285E3,6.8373926E2,7.439743E2,9.69562E2,1.00696356E3,1.9469012E4,2.1933295E4,1.4336686E3,2.6851336E4,2.9440004E4,3.1584238E4,3.4987555E4,3.8226105E4,4.0606523E4,4.311832E4,4.6855895E4,5.067933E4,5.5238977E4,5.9538227E4,6.3592992E4,6.9639586E4,5.4672646E3,5.70683E3,5.90563E3,6.24197E3,2.0801367E2,2.3134175E2,3.0323306E2,3.4026724E2,4.2233047E2,4.7518018E2,5.462229E2,6.1261975E2,1.124446E3,1.1873777E3,1.2600756E3,1.3468533E3,1.5492303E3,1.6252855E3,1.7139475E3,1.7712836E3,1.8300946E3,1.9115713E3,2.0194784E3,2.1129849E3,2.2044106E3,2.2913408E3,2.3631526E3,2.44506E3,2.5140518E3,2.5930571E3,2.7208252E3,2.8157732E3,2.9252249E3,3.0462556E3,3.2089075E3,3.3390422E3,3.460386E3,3.5869082E3,3.7070251E3,3.8105786E3,3.9899011E3,4.200651E3],"split_indices":[0,0,0,0,0,0,0,0,0,0,0,0,0,12,0,3,0,0,0,0,0,0,0,0,0,0,0,0,0,0,0,0,0,0,0,0,0,0,0,0,0,0,0,0,0,0,0,0,0,0,0,0,0,0,0,0,0,0,0,0,0,0,0,0,0,0,0,0,0,0,0,0,0,0,0,0,0,0,0,0,0,0,0,0,0,0,0,0,0,0,0,0,0,0,0,0,0],"split_type":[0,0,0,0,0,0,0,0,0,0,0,0,0,0,0,0,0,0,0,0,0,0,0,0,0,0,0,0,0,0,0,0,0,0,0,0,0,0,0,0,0,0,0,0,0,0,0,0,0,0,0,0,0,0,0,0,0,0,0,0,0,0,0,0,0,0,0,0,0,0,0,0,0,0,0,0,0,0,0,0,0,0,0,0,0,0,0,0,0,0,0,0,0,0,0,0,0],"sum_hessian":[1.41749E5,8.3475E4,5.8274E4,3.293E4,5.0545E4,5.2301E4,5.973E3,2.5932E4,6.998E3,2.6683E4,2.3862E4,2.3606E4,2.8695E4,7.5E2,5.223E3,9.994E3,1.5938E4,2.076E3,4.922E3,1.4085E4,1.2598E4,1.1732E4,1.213E4,1.2728E4,1.0878E4,1.3616E4,1.5079E4,4.53E2,2.97E2,3.228E3,1.995E3,6.989E3,3.005E3,8.169E3,7.769E3,1.736E3,3.4E2,1.875E3,3.047E3,7.062E3,7.023E3,2.664E3,9.934E3,8.224E3,3.508E3,5.451E3,6.679E3,5.106E3,7.622E3,6.281E3,4.597E3,5.503E3,8.113E3,6.886E3,8.193E3,1.296E3,1.932E3,1.423E3,5.72E2,2.814E3,4.175E3,2.102E3,9.03E2,3.134E3,5.035E3,3.763E3,4.006E3,2.912E3,4.15E3,3.286E3,3.737E3,4.636E3,5.298E3,3.825E3,4.399E3,1.657E3,1.851E3,3.123E3,2.328E3,3.848E3,2.831E3,2.278E3,2.828E3,3.634E3,3.988E3,2.601E3,3.68E3,2.547E3,2.05E3,1.877E3,3.626E3,3.796E3,4.317E3,3.475E3,3.411E3,6.402E3,1.791E3],"tree_param":{"num_deleted":"0","num_feature":"20","num_nodes":"97","size_leaf_vector":"0"}},{"base_weights":[1.9274217E4,1.0878477E4,3.121243E4,4.6677764E3,1.4953635E4,2.9027975E4,5.118828E4,3.79737E3,8.455972E3,1.2432566E4,1.7685252E4,2.3960338E4,3.3207496E4,4.635864E4,5.2287227E4,2.2799792E3,4.7383813E3,6.424323E3,8.9451875E3,1.1067457E4,1.3923364E4,1.5994299E4,1.9388672E4,2.2427484E4,2.5743223E4,3.1222498E4,3.558823E4,4.1755863E4,4.773404E4,5.132124E4,5.501163E4,2.0023319E3,2.89299E3,4.2070464E3,5.4215537E3,6.327812E3,6.906591E3,8.841291E3,9.249915E3,1.0432538E4,1.1686878E4,1.2822234E4,1.4257437E4,1.5634687E4,1.675721E4,1.8385598E4,2.0048695E4,2.153214E4,2.2909621E4,2.490986E4,2.6744744E4,3.0054328E4,3.2405639E4,3.461101E4,3.706062E4,5.0204062E4,5.206859E4,1.9179832E3,2.1455264E3,2.794639E3,3.343463E3,3.9642957E3,4.516404E3,5.218844E3,5.833041E3,8.297976E3,8.889248E3,1.010655E4,1.0646089E4,1.1314551E4,1.2063086E4,1.265389E4,1.3177312E4,1.3887126E4,1.4545789E4,1.5266856E4,1.5829333E4,1.6397373E4,1.7140281E4,1.799597E4,1.8716424E4,1.9545566E4,2.0409518E4,2.2523307E4,2.327016E4,2.4388133E4,2.522646E4,2.6191496E4,2.7327797E4,2.9258518E4,3.0682812E4,3.1840285E4,3.3003285E4,3.395142E4,3.5260695E4,3.659353E4,3.8738836E4],"categories":[],"categories_nodes":[],"categories_segments":[],"categories_sizes":[],"default_left":[1,1,1,1,1,1,1,1,1,1,1,1,1,1,1,1,1,1,1,1,1,1,1,1,1,1,1,0,0,1,0,1,1,1,1,0,0,1,0,1,1,1,1,1,1,1,1,0,1,1,1,1,1,1,1,0,0,0,0,0,0,0,0,0,0,0,0,0,0,0,0,0,0,0,0,0,0,0,0,0,0,0,0,0,0,0,0,0,0,0,0,0,0,0,0,0,0],"id":6,"left_children":[1,3,5,7,9,11,13,15,17,19,21,23,25,27,29,31,33,35,37,39,41,43,45,47,49,51,53,-1,-1,55,-1,57,59,61,63,-1,-1,65,-1,67,69,71,73,75,77,79,81,-1,83,85,87,89,91,93,95,-1,-1,-1,-1,-1,-1,-1,-1,-1,-1,-1,-1,-1,-1,-1,-1,-1,-1,-1,-1,-1,-1,-1,-1,-1,-1,-1,-1,-1,-1,-1,-1,-1,-1,-1,-1,-1,-1,-1,-1,-1,-1],"loss_changes":[1.4207286E13,2.1062945E12,2.5524185E12,1.0869211E11,3.458382E11,1.1166789E12,2.8189917E10,3.827784E10,6.065062E9,5.3035663E10,6.915359E10,6.460172E10,1.3551377E11,4.831314E9,9.522119E9,1.7414922E9,5.984715E9,1.210368E7,7.533363E7,5.2456325E9,4.411359E9,3.060007E9,7.582253E9,5.046272E9,8.5312143E9,2.0827865E10,1.7622368E10,0E0,0E0,2.8940698E8,0E0,8.126874E7,1.3234176E8,6.81558E8,5.73227E8,0E0,0E0,2.3232512E7,0E0,3.6221747E8,8.3001344E8,7.634944E6,8.202486E8,3.4865152E8,2.5172378E8,2.7918336E8,9.140961E8,0E0,6.356992E8,3.806331E8,8.941732E8,3.0786191E9,1.592787E9,2.193621E9,2.679636E9,0E0,0E0,0E0,0E0,0E0,0E0,0E0,0E0,0E0,0E0,0E0,0E0,0E0,0E0,0E0,0E0,0E0,0E0,0E0,0E0,0E0,0E0,0E0,0E0,0E0,0E0,0E0,0E0,0E0,0E0,0E0,0E0,0E0,0E0,0E0,0E0,0E0,0E0,0E0,0E0,0E0,0E0],"parents":[2147483647,0,0,1,1,2,2,3,3,4,4,5,5,6,6,7,7,8,8,9,9,10,10,11,11,12,12,13,13,14,14,15,15,16,16,17,17,18,18,19,19,20,20,21,21,22,22,23,23,24,24,25,25,26,26,29,29,31,31,32,32,33,33,34,34,37,37,39,39,40,40,41,41,42,42,43,43,44,44,45,45,46,46,48,48,49,49,50,50,51,51,52,52,53,53,54,54],"right_children":[2,4,6,8,10,12,14,16,18,20,22,24,26,28,30,32,34,36,38,40,42,44,46,48,50,52,54,-1,-1,56,-1,58,60,62,64,-1,-1,66,-1,68,70,72,74,76,78,80,82,-1,84,86,88,90,92,94,96,-1,-1,-1,-1,-1,-1,-1,-1,-1,-1,-1,-1,-1,-1,-1,-1,-1,-1,-1,-1,-1,-1,-1,-1,-1,-1,-1,-1,-1,-1,-1,-1,-1,-1,-1,-1,-1,-1,-1,-1,-1,-1],"split_conditions":[3.930114E4,1.8153605E4,7.627986E4,1.146309E4,2.8112824E4,5.3368492E4,9.2948625E4,6.918165E3,1.480514E4,2.33125E4,3.314172E4,4.495558E4,6.295863E4,8.5019125E4,1.0005492E5,4.87363E3,9.15178E3,1.243156E4,1.6991305E4,2.0659766E4,2.5506031E4,3.0384273E4,3.6037625E4,4.1713664E4,4.8427742E4,5.8837992E4,6.757164E4,4.1755864E3,4.773404E3,9.597791E4,5.501163E3,3.875745E3,5.84579E3,8.02499E3,1.0399645E4,6.327812E2,6.906591E2,1.6345425E4,9.249915E2,1.941722E4,2.187118E4,2.4369102E4,2.673998E4,2.920525E4,3.14608E4,3.449608E4,3.7497766E4,2.153214E3,4.2995805E4,4.66249E4,5.0258297E4,5.6607492E4,6.103492E4,6.510357E4,7.07448E4,5.0204062E3,5.206859E3,1.9179832E2,2.1455264E2,2.794639E2,3.3434628E2,3.9642957E2,4.5164038E2,5.2188446E2,5.8330414E2,8.2979755E2,8.889248E2,1.01065497E3,1.0646089E3,1.1314551E3,1.2063086E3,1.265389E3,1.3177312E3,1.3887126E3,1.454579E3,1.5266857E3,1.5829333E3,1.6397373E3,1.7140282E3,1.799597E3,1.8716425E3,1.9545566E3,2.0409518E3,2.2523308E3,2.327016E3,2.4388132E3,2.5226462E3,2.6191497E3,2.7327798E3,2.9258518E3,3.0682812E3,3.1840286E3,3.3003286E3,3.3951423E3,3.5260696E3,3.6593533E3,3.8738835E3],"split_indices":[0,0,2,0,0,2,0,0,0,0,0,0,0,0,0,0,0,0,0,0,0,0,0,0,0,0,0,0,0,0,0,0,2,0,0,0,0,0,0,0,0,0,0,0,0,0,0,0,0,0,0,0,0,0,0,0,0,0,0,0,0,0,0,0,0,0,0,0,0,0,0,0,0,0,0,0,0,0,0,0,0,0,0,0,0,0,0,0,0,0,0,0,0,0,0,0,0],"split_type":[0,0,0,0,0,0,0,0,0,0,0,0,0,0,0,0,0,0,0,0,0,0,0,0,0,0,0,0,0,0,0,0,0,0,0,0,0,0,0,0,0,0,0,0,0,0,0,0,0,0,0,0,0,0,0,0,0,0,0,0,0,0,0,0,0,0,0,0,0,0,0,0,0,0,0,0,0,0,0,0,0,0,0,0,0,0,0,0,0,0,0,0,0,0,0,0,0],"sum_hessian":[1.41749E5,8.3223E4,5.8526E4,3.2973E4,5.025E4,5.2759E4,5.767E3,2.6814E4,6.159E3,2.6135E4,2.4115E4,2.3849E4,2.891E4,1.077E3,4.69E3,1.0265E4,1.6549E4,1.198E3,4.961E3,1.3647E4,1.2488E4,1.2107E4,1.2008E4,1.2831E4,1.1018E4,1.5773E4,1.3137E4,2.55E2,8.22E2,3.477E3,1.213E3,7.068E3,3.197E3,9.313E3,7.236E3,1.01E3,1.88E2,3.722E3,1.239E3,6.748E3,6.899E3,2.916E3,9.572E3,8.243E3,3.864E3,4.777E3,7.231E3,4.507E3,8.324E3,6.028E3,4.99E3,7.95E3,7.823E3,7.911E3,5.226E3,1.421E3,2.056E3,4.457E3,2.611E3,2.63E3,5.67E2,5.226E3,4.087E3,4.857E3,2.379E3,3.16E2,3.406E3,2.69E3,4.058E3,3.483E3,3.416E3,2.003E3,9.13E2,4.212E3,5.36E3,2.88E3,5.363E3,2.015E3,1.849E3,2.219E3,2.558E3,3.043E3,4.188E3,4.049E3,4.275E3,2.306E3,3.722E3,2.584E3,2.406E3,3.529E3,4.421E3,4.048E3,3.775E3,3.952E3,3.959E3,4.106E3,1.12E3],"tree_param":{"num_deleted":"0","num_feature":"20","num_nodes":"97","size_leaf_vector":"0"}},{"base_weights":[1.7347498E4,1.0015616E4,2.842371E4,4.313081E3,1.3754459E4,2.6430738E4,4.6218387E4,3.4616704E3,7.940021E3,1.1820035E4,1.6904066E4,2.2024918E4,3.009415E4,4.3814836E4,4.776506E4,2.0552039E3,4.310145E3,5.9088936E3,8.169726E3,1.0225674E4,1.3231262E4,1.5490046E4,1.8133732E4,2.0582148E4,2.367591E4,2.8424031E4,3.2211465E4,3.8692676E4,4.430678E4,4.7117504E4,5.05433E4,1.8012677E3,2.6069187E3,3.8358503E3,5.003776E3,8.016411E3,8.824527E3,9.677218E3,1.1011888E4,1.2674987E4,1.3884965E4,1.4798649E4,1.6287369E4,1.7568666E4,1.8705318E4,2.016863E4,2.136595E4,2.2893105E4,2.4896053E4,2.7434729E4,2.942792E4,3.135333E4,3.349637E4,4.2834582E4,4.5002785E4,1.7323569E3,1.9426755E3,2.5030486E3,2.976629E3,3.6269714E3,4.2109463E3,4.795464E3,5.372037E3,7.532387E3,8.0599795E3,9.357753E3,1.0029126E4,1.0686845E4,1.1325056E4,1.229469E4,1.2931052E4,1.357634E4,1.4093931E4,1.4610388E4,1.521728E4,1.5942943E4,1.6562541E4,1.7304207E4,1.7939148E4,1.8377129E4,1.8984445E4,1.983348E4,2.0516893E4,2.0982889E4,2.174215E4,2.2504906E4,2.33623E4,2.4327104E4,2.5640994E4,2.6832363E4,2.792852E4,2.8870598E4,2.9874725E4,3.073975E4,3.1838213E4,3.310119E4,3.5413996E4],"categories":[],"categories_nodes":[],"categories_segments":[],"categories_sizes":[],"default_left":[1,1,1,1,1,1,1,1,1,1,1,1,1,1,1,1,1,0,1,1,1,1,1,1,1,1,1,0,1,0,0,1,1,1,1,1,0,1,1,1,1,1,1,1,1,1,1,1,1,1,1,1,1,0,0,0,0,0,0,0,0,0,0,0,0,0,0,0,0,0,0,0,0,0,0,0,0,0,0,0,0,0,0,0,0,0,0,0,0,0,0,0,0,0,0,0,0],"id":7,"left_children":[1,3,5,7,9,11,13,15,17,19,21,23,25,27,29,31,33,-1,35,37,39,41,43,45,47,49,51,-1,53,-1,-1,55,57,59,61,63,-1,65,67,69,71,73,75,77,79,81,83,85,87,89,91,93,95,-1,-1,-1,-1,-1,-1,-1,-1,-1,-1,-1,-1,-1,-1,-1,-1,-1,-1,-1,-1,-1,-1,-1,-1,-1,-1,-1,-1,-1,-1,-1,-1,-1,-1,-1,-1,-1,-1,-1,-1,-1,-1,-1,-1],"loss_changes":[1.1511162E13,1.8184625E12,2.0010227E12,1.0427951E11,3.1367102E11,8.188456E11,1.9041092E10,3.2638861E10,2.9474816E9,7.1680655E10,3.3797702E10,5.443053E10,9.710862E10,3.925082E9,3.8215352E9,1.4377779E9,5.594284E9,0E0,5.0813338E8,6.3576474E9,5.979767E9,4.788191E9,3.0552883E9,3.5593912E9,9.693037E9,1.4590935E10,1.2419334E10,0E0,1.572864E8,0E0,0E0,6.537216E7,1.1708621E8,7.790428E8,5.055611E8,3.804365E7,0E0,8.998748E8,5.053481E8,7.3282355E8,3.098542E8,1.6370893E8,1.3657702E8,2.073559E8,1.2700877E8,5.3608448E8,1.5414067E8,6.6872934E8,1.1513364E9,1.5781069E9,1.05067315E9,1.2053381E9,2.5239224E9,0E0,0E0,0E0,0E0,0E0,0E0,0E0,0E0,0E0,0E0,0E0,0E0,0E0,0E0,0E0,0E0,0E0,0E0,0E0,0E0,0E0,0E0,0E0,0E0,0E0,0E0,0E0,0E0,0E0,0E0,0E0,0E0,0E0,0E0,0E0,0E0,0E0,0E0,0E0,0E0,0E0,0E0,0E0,0E0],"parents":[2147483647,0,0,1,1,2,2,3,3,4,4,5,5,6,6,7,7,8,8,9,9,10,10,11,11,12,12,13,13,14,14,15,15,16,16,18,18,19,19,20,20,21,21,22,22,23,23,24,24,25,25,26,26,28,28,31,31,32,32,33,33,34,34,35,35,37,37,38,38,39,39,40,40,41,41,42,42,43,43,44,44,45,45,46,46,47,47,48,48,49,49,50,50,51,51,52,52],"right_children":[2,4,6,8,10,12,14,16,18,20,22,24,26,28,30,32,34,-1,36,38,40,42,44,46,48,50,52,-1,54,-1,-1,56,58,60,62,64,-1,66,68,70,72,74,76,78,80,82,84,86,88,90,92,94,96,-1,-1,-1,-1,-1,-1,-1,-1,-1,-1,-1,-1,-1,-1,-1,-1,-1,-1,-1,-1,-1,-1,-1,-1,-1,-1,-1,-1,-1,-1,-1,-1,-1,-1,-1,-1,-1,-1,-1,-1,-1,-1,-1,-1],"split_conditions":[4.030884E4,1.9060445E4,7.65095E4,1.1810275E4,3.0060346E4,5.4727492E4,9.5624016E4,6.96063E3,1.480514E4,2.4476621E4,3.5265742E4,4.6242887E4,6.34183E4,8.694641E4,1.0249068E5,4.821045E3,9.382186E3,5.9088934E2,1.745811E4,2.1632865E4,2.779479E4,3.2575195E4,3.7938E4,4.3556867E4,4.9801695E4,5.940403E4,6.776208E4,3.8692676E3,9.231328E4,4.7117505E3,5.05433E3,3.898125E3,5.78096E3,8.233311E3,1.0543165E4,1.6444496E4,8.8245276E2,2.0254906E4,2.304056E4,2.6425086E4,2.901784E4,3.1251176E4,3.407135E4,3.7012883E4,3.8999E4,4.229961E4,4.4437824E4,4.7919477E4,5.1949047E4,5.725018E4,6.1274137E4,6.5429156E4,7.12165E4,4.2834585E3,4.500279E3,1.732357E2,1.9426756E2,2.5030486E2,2.976629E2,3.6269714E2,4.2109464E2,4.795464E2,5.3720374E2,7.532387E2,8.05998E2,9.357753E2,1.0029126E3,1.0686844E3,1.1325056E3,1.2294691E3,1.2931052E3,1.357634E3,1.4093931E3,1.4610388E3,1.521728E3,1.5942943E3,1.6562542E3,1.7304208E3,1.7939149E3,1.8377129E3,1.8984446E3,1.983348E3,2.0516892E3,2.0982888E3,2.174215E3,2.2504907E3,2.3362302E3,2.4327104E3,2.5640994E3,2.6832363E3,2.792852E3,2.8870598E3,2.9874724E3,3.073975E3,3.1838213E3,3.3101191E3,3.5413997E3],"split_indices":[0,0,0,0,0,0,0,0,0,0,0,0,0,0,0,0,0,0,0,0,0,0,0,0,0,0,0,0,0,0,0,0,0,0,0,0,0,0,0,0,0,0,0,0,0,0,0,0,0,0,0,0,0,0,0,0,0,0,0,0,0,0,0,0,0,0,0,0,0,0,0,0,0,0,0,0,0,0,0,0,0,0,0,0,0,0,0,0,0,0,0,0,0,0,0,0,0],"split_type":[0,0,0,0,0,0,0,0,0,0,0,0,0,0,0,0,0,0,0,0,0,0,0,0,0,0,0,0,0,0,0,0,0,0,0,0,0,0,0,0,0,0,0,0,0,0,0,0,0,0,0,0,0,0,0,0,0,0,0,0,0,0,0,0,0,0,0,0,0,0,0,0,0,0,0,0,0,0,0,0,0,0,0,0,0,0,0,0,0,0,0,0,0,0,0,0,0],"sum_hessian":[1.41749E5,8.5292E4,5.6457E4,3.3777E4,5.1515E4,5.0773E4,5.684E3,2.7357E4,6.42E3,3.1917E4,1.9598E4,2.3054E4,2.7719E4,2.237E3,3.447E3,1.0295E4,1.7062E4,6.55E2,5.765E3,1.499E4,1.6927E4,9.122E3,1.0476E4,1.231E4,1.0744E4,1.5504E4,1.2215E4,2.03E2,2.034E3,2.81E3,6.37E2,7.053E3,3.242E3,1.0137E4,6.925E3,4.682E3,1.083E3,8.838E3,6.152E3,9.156E3,7.771E3,4.896E3,4.226E3,5.284E3,5.192E3,8.076E3,4.234E3,6.557E3,4.187E3,7.823E3,7.681E3,7.339E3,4.876E3,6.73E2,1.361E3,4.751E3,2.302E3,2.537E3,7.05E2,6.518E3,3.619E3,4.432E3,2.493E3,4.01E2,4.281E3,4.647E3,4.191E3,3.036E3,3.116E3,3.704E3,5.452E3,3.164E3,4.607E3,3.402E3,1.494E3,1.903E3,2.323E3,3.111E3,2.173E3,2.417E3,2.775E3,4.145E3,3.931E3,2.126E3,2.108E3,3.615E3,2.942E3,2.393E3,1.794E3,3.549E3,4.274E3,3.447E3,4.234E3,3.268E3,4.071E3,4.058E3,8.18E2],"tree_param":{"num_deleted":"0","num_feature":"20","num_nodes":"97","size_leaf_vector":"0"}},{"base_weights":[1.5613407E4,9.021428E3,2.5593283E4,3.9998474E3,1.246603E4,2.3741445E4,4.111407E4,3.145439E3,7.399759E3,1.0746301E4,1.5274062E4,1.9818246E4,2.700989E4,3.5415305E4,4.2113656E4,1.8625795E3,3.916942E3,7.135174E3,8.0608257E3,9.29656E3,1.1955271E4,1.4036374E4,1.6369425E4,1.8577209E4,2.1347666E4,2.54992E4,2.8809402E4,3.2787113E4,3.763281E4,4.1240008E4,4.4429387E4,1.6257911E3,2.378266E3,3.4664482E3,4.5508315E3,5.6120986E3,7.222816E3,8.800643E3,9.972451E3,1.1435916E4,1.252688E4,1.337138E4,1.471281E4,1.5963076E4,1.6973299E4,1.8222535E4,1.9437336E4,2.0634031E4,2.2364309E4,2.4581025E4,2.6332191E4,2.7986709E4,2.9795795E4,4.02178E4,4.197524E4,1.497299E3,1.6971886E3,2.2769219E3,2.7658562E3,3.282289E3,3.8167136E3,4.363823E3,4.9663027E3,6.988395E3,7.294074E3,8.529687E3,9.114637E3,9.687129E3,1.0251572E4,1.1123663E4,1.1660057E4,1.224235E4,1.2722016E4,1.3173949E4,1.3710154E4,1.43853125E4,1.4946147E4,1.5657919E4,1.6261825E4,1.7903514E4,1.8563762E4,2.0276494E4,2.098626E4,2.1853818E4,2.303017E4,2.399846E4,2.4953068E4,2.588147E4,2.6804496E4,2.7507459E4,2.8428871E4,2.9459477E4,3.0811615E4],"categories":[],"categories_nodes":[],"categories_segments":[],"categories_sizes":[],"default_left":[1,1,1,1,1,1,1,1,1,1,1,1,1,1,1,1,1,1,0,1,1,1,1,1,1,1,1,0,0,1,0,1,1,1,1,0,1,1,1,1,1,1,1,1,0,1,0,1,1,1,1,1,1,0,0,0,0,0,0,0,0,0,0,0,0,0,0,0,0,0,0,0,0,0,0,0,0,0,0,0,0,0,0,0,0,0,0,0,0,0,0,0,0],"id":8,"left_children":[1,3,5,7,9,11,13,15,17,19,21,23,25,27,29,31,33,35,-1,37,39,41,43,45,47,49,51,-1,-1,53,-1,55,57,59,61,-1,63,65,67,69,71,73,75,77,-1,79,-1,81,83,85,87,89,91,-1,-1,-1,-1,-1,-1,-1,-1,-1,-1,-1,-1,-1,-1,-1,-1,-1,-1,-1,-1,-1,-1,-1,-1,-1,-1,-1,-1,-1,-1,-1,-1,-1,-1,-1,-1,-1,-1,-1,-1],"loss_changes":[9.3251E12,1.4765554E12,1.6196389E12,1.0087596E11,2.4434547E11,6.454363E11,3.273864E10,2.7467612E10,1.1624776E9,5.4932275E10,2.583901E10,4.306816E10,7.396865E10,4.02876E9,8.5008056E9,1.2693627E9,4.9341727E9,6.255575E8,0E0,4.700373E9,4.9395794E9,3.8675415E9,2.2308454E9,3.5046031E9,6.975652E9,1.0784604E10,9.336521E9,0E0,0E0,1.1093934E9,0E0,6.3043584E7,1.2250112E8,6.413599E8,5.375918E8,0E0,2.7787264E7,6.2396826E8,3.815506E8,4.989911E8,2.9622272E8,1.2484608E8,1.2641894E8,3.023831E8,0E0,6.4434995E8,0E0,3.347579E8,9.296937E8,9.455534E8,9.7202995E8,6.7004006E8,1.0344202E9,0E0,0E0,0E0,0E0,0E0,0E0,0E0,0E0,0E0,0E0,0E0,0E0,0E0,0E0,0E0,0E0,0E0,0E0,0E0,0E0,0E0,0E0,0E0,0E0,0E0,0E0,0E0,0E0,0E0,0E0,0E0,0E0,0E0,0E0,0E0,0E0,0E0,0E0,0E0,0E0],"parents":[2147483647,0,0,1,1,2,2,3,3,4,4,5,5,6,6,7,7,8,8,9,9,10,10,11,11,12,12,13,13,14,14,15,15,16,16,17,17,19,19,20,20,21,21,22,22,23,23,24,24,25,25,26,26,29,29,31,31,32,32,33,33,34,34,36,36,37,37,38,38,39,39,40,40,41,41,42,42,43,43,45,45,47,47,48,48,49,49,50,50,51,51,52,52],"right_children":[2,4,6,8,10,12,14,16,18,20,22,24,26,28,30,32,34,36,-1,38,40,42,44,46,48,50,52,-1,-1,54,-1,56,58,60,62,-1,64,66,68,70,72,74,76,78,-1,80,-1,82,84,86,88,90,92,-1,-1,-1,-1,-1,-1,-1,-1,-1,-1,-1,-1,-1,-1,-1,-1,-1,-1,-1,-1,-1,-1,-1,-1,-1,-1,-1,-1,-1,-1,-1,-1,-1,-1,-1,-1,-1,-1,-1,-1],"split_conditions":[4.037081E4,1.9206516E4,7.278112E4,1.2244945E4,3.016965E4,5.46616E4,9.07627E4,7.069275E3,1.7641754E4,2.462682E4,3.5503906E4,4.644953E4,6.310354E4,7.9858984E4,9.956508E4,4.9506553E3,9.437335E3,1.5801715E4,8.060826E2,2.1764525E4,2.782603E4,3.266568E4,3.851873E4,4.3859664E4,4.9695133E4,5.9022438E4,6.718478E4,3.2787114E3,3.763281E3,9.546309E4,4.442939E3,3.63128E3,5.909685E3,8.2931E3,1.0757295E4,5.612099E2,1.659621E4,2.0467926E4,2.31275E4,2.6499996E4,2.9082645E4,3.1330664E4,3.4112324E4,3.713484E4,1.69733E3,4.2501188E4,1.9437336E3,4.782498E4,5.1854312E4,5.6851547E4,6.1175516E4,6.4887773E4,6.99682E4,4.02178E3,4.197524E3,1.497299E2,1.6971886E2,2.2769218E2,2.7658563E2,3.282289E2,3.8167136E2,4.3638232E2,4.9663028E2,6.9883954E2,7.294074E2,8.529687E2,9.114637E2,9.687129E2,1.0251572E3,1.1123663E3,1.1660057E3,1.224235E3,1.2722015E3,1.3173949E3,1.3710155E3,1.4385312E3,1.4946147E3,1.5657919E3,1.6261825E3,1.7903514E3,1.8563762E3,2.0276494E3,2.098626E3,2.1853818E3,2.303017E3,2.3998462E3,2.495307E3,2.5881472E3,2.6804497E3,2.7507458E3,2.8428872E3,2.9459478E3,3.0811616E3],"split_indices":[0,0,3,1,0,0,0,0,0,0,0,0,0,0,0,0,0,2,0,0,0,0,0,0,0,0,0,0,0,0,0,0,0,0,0,0,0,0,0,0,0,2,0,0,0,0,0,0,0,0,0,0,0,0,0,0,0,0,0,0,0,0,0,0,0,0,0,0,0,0,0,0,0,0,0,0,0,0,0,0,0,0,0,0,0,0,0,0,0,0,0,0,0],"split_type":[0,0,0,0,0,0,0,0,0,0,0,0,0,0,0,0,0,0,0,0,0,0,0,0,0,0,0,0,0,0,0,0,0,0,0,0,0,0,0,0,0,0,0,0,0,0,0,0,0,0,0,0,0,0,0,0,0,0,0,0,0,0,0,0,0,0,0,0,0,0,0,0,0,0,0,0,0,0,0,0,0,0,0,0,0,0,0,0,0,0,0,0,0],"sum_hessian":[1.41749E5,8.5365E4,5.6384E4,3.4733E4,5.0632E4,5.0376E4,6.008E3,2.7759E4,6.974E3,3.1404E4,1.9228E4,2.2898E4,2.7478E4,9.02E2,5.106E3,1.0426E4,1.7333E4,4.989E3,1.985E3,1.4284E4,1.712E4,9.034E3,1.0194E4,1.2648E4,1.025E4,1.4946E4,1.2532E4,4.2E2,4.82E2,3.721E3,1.385E3,7.148E3,3.278E3,1.0136E4,7.197E3,2.75E2,4.714E3,8.247E3,6.037E3,8.981E3,8.139E3,4.566E3,4.468E3,6.11E3,4.084E3,8.971E3,3.677E3,6.035E3,4.215E3,7.124E3,7.822E3,6.849E3,5.683E3,1.58E3,2.141E3,2.561E3,4.587E3,2.604E3,6.74E2,6.65E3,3.486E3,4.971E3,2.226E3,1.122E3,3.592E3,4.442E3,3.805E3,3.003E3,3.034E3,3.774E3,5.207E3,3.337E3,4.802E3,2.91E3,1.656E3,1.885E3,2.583E3,3.049E3,3.061E3,4.664E3,4.307E3,3.024E3,3.011E3,2.405E3,1.81E3,2.802E3,4.322E3,4.031E3,3.791E3,3.317E3,3.532E3,4.292E3,1.391E3],"tree_param":{"num_deleted":"0","num_feature":"20","num_nodes":"93","size_leaf_vector":"0"}},{"base_weights":[1.4052631E4,8.043822E3,2.2922168E4,3.4673777E3,1.1056458E4,2.1263682E4,3.6953273E4,2.7702573E3,6.265553E3,9.238894E3,1.3174062E4,1.7691604E4,2.4250156E4,3.0846441E4,3.776723E4,1.656895E3,3.4525369E3,4.7027783E3,6.585708E3,8.232477E3,1.0412342E4,1.1893628E4,1.43758545E4,1.6562361E4,1.9039906E4,2.2728906E4,2.5740611E4,2.9235645E4,3.2926484E4,3.6655066E4,3.9382E4,1.4555558E3,2.0937207E3,3.0506794E3,3.942741E3,6.4778633E3,7.0526807E3,7.762761E3,8.806128E3,1.0061254E4,1.0792216E4,1.1597115E4,1.2657439E4,1.3766641E4,1.4919976E4,1.6107157E4,1.7058719E4,1.8449164E4,1.994972E4,2.1900021E4,2.3404371E4,2.4960082E4,2.6718465E4,3.525218E4,3.7136184E4,3.880522E4,4.1709527E4,1.3204705E3,1.5068195E3,1.930088E3,2.2427458E3,2.783636E3,3.2150845E3,3.6804014E3,4.145759E3,6.0060684E3,6.5121304E3,7.4919673E3,7.9893647E3,8.477883E3,9.061435E3,9.543289E3,1.0181602E4,1.0606929E4,1.1006407E4,1.1396525E4,1.183027E4,1.2372898E4,1.2926696E4,1.3450348E4,1.4110941E4,1.4646983E4,1.5247107E4,1.5652036E4,1.6322301E4,1.6841666E4,1.7538688E4,1.811505E4,1.876765E4,1.9524812E4,2.0524766E4,2.1398467E4,2.2224666E4,2.3025893E4,2.386018E4,2.4548232E4,2.544465E4,2.643157E4,2.7646791E4],"categories":[],"categories_nodes":[],"categories_segments":[],"categories_sizes":[],"default_left":[1,1,1,1,1,1,1,1,1,1,1,1,1,1,1,1,1,0,1,1,1,1,1,1,1,1,1,0,0,1,1,1,1,1,1,1,0,1,1,1,1,1,1,1,1,1,1,1,1,1,1,1,1,0,0,0,0,0,0,0,0,0,0,0,0,0,0,0,0,0,0,0,0,0,0,0,0,0,0,0,0,0,0,0,0,0,0,0,0,0,0,0,0,0,0,0,0,0,0],"id":9,"left_children":[1,3,5,7,9,11,13,15,17,19,21,23,25,27,29,31,33,-1,35,37,39,41,43,45,47,49,51,-1,-1,53,55,57,59,61,63,65,-1,67,69,71,73,75,77,79,81,83,85,87,89,91,93,95,97,-1,-1,-1,-1,-1,-1,-1,-1,-1,-1,-1,-1,-1,-1,-1,-1,-1,-1,-1,-1,-1,-1,-1,-1,-1,-1,-1,-1,-1,-1,-1,-1,-1,-1,-1,-1,-1,-1,-1,-1,-1,-1,-1,-1,-1,-1],"loss_changes":[7.5544343E12,1.1650324E12,1.3313728E12,6.542164E10,1.9600926E11,5.4574816E11,2.8908192E10,2.0396278E10,3.3162527E9,3.2302694E10,3.604375E10,3.518654E10,6.263354E10,1.4396948E9,8.135377E9,8.9465856E8,3.2682803E9,0E0,2.3379968E8,3.910992E9,1.5795487E9,2.4351867E9,3.8170788E9,2.593915E9,5.3403976E9,7.217873E9,1.0076815E10,0E0,0E0,8.3256934E8,1.2839813E9,4.641587E7,7.414374E7,3.9298662E8,3.8408192E8,3.3980416E7,0E0,4.388946E8,4.7969075E8,3.1378637E8,1.2399411E8,2.4982323E8,8.34601E7,4.3502797E8,3.4799616E8,3.9491994E8,3.356754E8,3.468165E8,6.180045E8,5.3660877E8,7.607419E8,9.4109696E8,9.295626E8,0E0,0E0,0E0,0E0,0E0,0E0,0E0,0E0,0E0,0E0,0E0,0E0,0E0,0E0,0E0,0E0,0E0,0E0,0E0,0E0,0E0,0E0,0E0,0E0,0E0,0E0,0E0,0E0,0E0,0E0,0E0,0E0,0E0,0E0,0E0,0E0,0E0,0E0,0E0,0E0,0E0,0E0,0E0,0E0,0E0,0E0],"parents":[2147483647,0,0,1,1,2,2,3,3,4,4,5,5,6,6,7,7,8,8,9,9,10,10,11,11,12,12,13,13,14,14,15,15,16,16,18,18,19,19,20,20,21,21,22,22,23,23,24,24,25,25,26,26,29,29,30,30,31,31,32,32,33,33,34,34,35,35,37,37,38,38,39,39,40,40,41,41,42,42,43,43,44,44,45,45,46,46,47,47,48,48,49,49,50,50,51,51,52,52],"right_children":[2,4,6,8,10,12,14,16,18,20,22,24,26,28,30,32,34,-1,36,38,40,42,44,46,48,50,52,-1,-1,54,56,58,60,62,64,66,-1,68,70,72,74,76,78,80,82,84,86,88,90,92,94,96,98,-1,-1,-1,-1,-1,-1,-1,-1,-1,-1,-1,-1,-1,-1,-1,-1,-1,-1,-1,-1,-1,-1,-1,-1,-1,-1,-1,-1,-1,-1,-1,-1,-1,-1,-1,-1,-1,-1,-1,-1,-1,-1,-1,-1,-1,-1],"split_conditions":[3.989975E4,1.8981205E4,7.270609E4,1.150834E4,2.8966035E4,5.4335273E4,8.8551984E4,6.866675E3,1.3254625E4,2.4091205E4,3.3999395E4,4.5996445E4,6.2355656E4,7.763269E4,9.790059E4,4.178815E3,9.09585E3,4.7027783E2,1.734073E4,2.129207E4,2.6951035E4,3.1325836E4,3.709734E4,4.2892867E4,4.9345367E4,5.824097E4,6.6919195E4,2.9235645E3,3.2926484E3,9.370112E4,1.0419478E5,3.59597E3,5.2680596E3,7.69583E3,1.010352E4,1.629463E4,7.0526807E2,1.9950574E4,2.27443E4,2.5607074E4,2.7888846E4,2.9982246E4,3.2720004E4,3.565896E4,3.8667266E4,4.1270164E4,4.432103E4,4.7511023E4,5.16129E4,5.6440297E4,6.0753055E4,6.4428105E4,6.986537E4,3.525218E3,3.7136184E3,3.880522E3,4.1709526E3,1.3204704E2,1.5068195E2,1.930088E2,2.2427458E2,2.7836362E2,3.2150845E2,3.6804013E2,4.145759E2,6.006069E2,6.512131E2,7.491967E2,7.9893646E2,8.4778827E2,9.061435E2,9.543289E2,1.01816016E3,1.0606929E3,1.1006407E3,1.1396526E3,1.183027E3,1.2372899E3,1.2926697E3,1.3450348E3,1.4110941E3,1.4646984E3,1.5247108E3,1.5652036E3,1.6322301E3,1.6841666E3,1.7538688E3,1.8115051E3,1.876765E3,1.9524813E3,2.0524766E3,2.1398467E3,2.2224666E3,2.3025894E3,2.386018E3,2.4548232E3,2.544465E3,2.643157E3,2.7646792E3],"split_indices":[0,0,0,0,0,0,8,3,0,0,0,0,0,0,0,3,0,0,0,0,0,0,0,2,0,0,0,0,0,0,0,0,0,0,0,0,0,0,0,2,0,0,0,0,0,0,0,0,0,0,0,0,0,0,0,0,0,0,0,0,0,0,0,0,0,0,0,0,0,0,0,0,0,0,0,0,0,0,0,0,0,0,0,0,0,0,0,0,0,0,0,0,0,0,0,0,0,0,0],"split_type":[0,0,0,0,0,0,0,0,0,0,0,0,0,0,0,0,0,0,0,0,0,0,0,0,0,0,0,0,0,0,0,0,0,0,0,0,0,0,0,0,0,0,0,0,0,0,0,0,0,0,0,0,0,0,0,0,0,0,0,0,0,0,0,0,0,0,0,0,0,0,0,0,0,0,0,0,0,0,0,0,0,0,0,0,0,0,0,0,0,0,0,0,0,0,0,0,0,0,0],"sum_hessian":[1.41749E5,8.4503E4,5.7246E4,3.3546E4,5.0957E4,5.1197E4,6.049E3,2.6857E4,6.689E3,2.7424E4,2.3533E4,2.3316E4,2.7881E4,7.16E2,5.333E3,1.0206E4,1.6651E4,1.14E3,5.549E3,1.4767E4,1.2657E4,1.1399E4,1.2134E4,1.2696E4,1.062E4,1.3806E4,1.4075E4,4.12E2,3.04E2,3.172E3,2.161E3,6.989E3,3.217E3,9.154E3,7.497E3,4.52E3,1.029E3,8.127E3,6.64E3,6.592E3,6.065E3,8.223E3,3.176E3,5.737E3,6.397E3,6.64E3,6.056E3,6.452E3,4.168E3,6.214E3,7.592E3,7.842E3,6.233E3,8.29E2,2.343E3,1.746E3,4.15E2,1.93E3,5.059E3,1.54E3,1.677E3,3.495E3,5.659E3,3.279E3,4.218E3,3.18E2,4.202E3,3.718E3,4.409E3,2.92E3,3.72E3,1.258E3,5.334E3,3.279E3,2.786E3,4.447E3,3.776E3,1.567E3,1.609E3,3.011E3,2.726E3,3.512E3,2.885E3,2.155E3,4.485E3,4.195E3,1.861E3,3.177E3,3.275E3,2.417E3,1.751E3,2.468E3,3.746E3,4.176E3,3.416E3,4.267E3,3.575E3,4.784E3,1.449E3],"tree_param":{"num_deleted":"0","num_feature":"20","num_nodes":"99","size_leaf_vector":"0"}},{"base_weights":[1.2647917E4,7.1853145E3,2.0551734E4,3.0977214E3,9.882201E3,1.906782E4,3.325002E4,2.4745645E3,5.5345117E3,8.266908E3,1.1756945E4,1.5764933E4,2.1740525E4,2.718901E4,3.3928367E4,1.4687437E3,3.075994E3,4.1912007E3,5.902353E3,7.3425083E3,9.281906E3,1.0636392E4,1.2841397E4,1.479384E4,1.6926469E4,2.025996E4,2.3069348E4,2.631879E4,2.8955402E4,3.268325E4,3.517797E4,1.3088036E3,1.8426804E3,2.6609385E3,3.455237E3,4.138058E3,4.5489873E3,5.795404E3,6.188706E3,6.924549E3,7.8109126E3,8.772184E3,9.54723E3,1.0386082E4,1.1268056E4,1.2269834E4,1.3309326E4,1.423358E4,1.5111724E4,1.6461104E4,1.7642324E4,1.9465062E4,2.0847766E4,2.2363666E4,2.4019043E4,3.1343918E4,3.3133156E4,3.467441E4,3.7318742E4,1.2410183E3,1.3942404E3,1.6769974E3,1.9329404E3,2.4300344E3,2.7895024E3,3.230293E3,3.6889546E3,5.399921E3,5.827884E3,6.7176943E3,7.1281406E3,7.549612E3,8.071048E3,8.484671E3,8.996585E3,9.374252E3,9.816491E3,1.0224738E4,1.059708E4,1.1001004E4,1.1521303E4,1.2046992E4,1.2602832E4,1.3116401E4,1.3650986E4,1.3999838E4,1.4486768E4,1.4947838E4,1.55261455E4,1.6162353E4,1.6743045E4,1.7376889E4,1.8090875E4,1.89002E4,1.9733371E4,2.0541264E4,2.1264332E4,2.2026674E4,2.287582E4,2.3702701E4,2.471811E4],"categories":[],"categories_nodes":[],"categories_segments":[],"categories_sizes":[],"default_left":[1,1,1,1,1,1,1,1,1,1,1,1,1,1,1,1,1,1,1,1,1,1,1,1,1,1,1,0,0,1,1,1,1,1,1,0,0,1,0,1,1,1,1,1,1,1,1,1,1,1,1,1,1,1,1,0,0,0,0,0,0,0,0,0,0,0,0,0,0,0,0,0,0,0,0,0,0,0,0,0,0,0,0,0,0,0,0,0,0,0,0,0,0,0,0,0,0,0,0,0,0],"id":10,"left_children":[1,3,5,7,9,11,13,15,17,19,21,23,25,27,29,31,33,35,37,39,41,43,45,47,49,51,53,-1,-1,55,57,59,61,63,65,-1,-1,67,-1,69,71,73,75,77,79,81,83,85,87,89,91,93,95,97,99,-1,-1,-1,-1,-1,-1,-1,-1,-1,-1,-1,-1,-1,-1,-1,-1,-1,-1,-1,-1,-1,-1,-1,-1,-1,-1,-1,-1,-1,-1,-1,-1,-1,-1,-1,-1,-1,-1,-1,-1,-1,-1,-1,-1,-1,-1],"loss_changes":[6.11997E12,9.2399364E11,1.09095105E12,5.0584355E10,1.528331E11,4.5755662E11,2.3992992E10,1.6048521E10,3.3279017E9,2.5387991E10,2.826358E10,2.5922372E10,5.593419E10,1.833042E8,7.323779E9,5.915955E8,2.6046956E9,8.976384E6,1.2718899E8,2.7266908E9,1.6646144E9,1.7011835E9,3.0119035E9,2.0373832E9,3.2272548E9,5.9338916E9,9.583985E9,0E0,0E0,6.136791E8,1.6218849E9,3.8578176E7,4.121907E7,2.2872064E8,4.441047E8,0E0,0E0,1.8522112E7,0E0,2.6863206E8,3.938386E8,2.1001011E8,3.034972E8,1.7249075E8,9.319219E7,2.4562893E8,2.504786E8,6.907494E7,3.1483494E8,2.6974618E8,1.793065E8,5.0357862E8,5.5731814E8,9.9405005E8,8.3492864E8,0E0,0E0,0E0,0E0,0E0,0E0,0E0,0E0,0E0,0E0,0E0,0E0,0E0,0E0,0E0,0E0,0E0,0E0,0E0,0E0,0E0,0E0,0E0,0E0,0E0,0E0,0E0,0E0,0E0,0E0,0E0,0E0,0E0,0E0,0E0,0E0,0E0,0E0,0E0,0E0,0E0,0E0,0E0,0E0,0E0,0E0],"parents":[2147483647,0,0,1,1,2,2,3,3,4,4,5,5,6,6,7,7,8,8,9,9,10,10,11,11,12,12,13,13,14,14,15,15,16,16,17,17,18,18,19,19,20,20,21,21,22,22,23,23,24,24,25,25,26,26,29,29,30,30,31,31,32,32,33,33,34,34,37,37,39,39,40,40,41,41,42,42,43,43,44,44,45,45,46,46,47,47,48,48,49,49,50,50,51,51,52,52,53,53,54,54],"right_children":[2,4,6,8,10,12,14,16,18,20,22,24,26,28,30,32,34,36,38,40,42,44,46,48,50,52,54,-1,-1,56,58,60,62,64,66,-1,-1,68,-1,70,72,74,76,78,80,82,84,86,88,90,92,94,96,98,100,-1,-1,-1,-1,-1,-1,-1,-1,-1,-1,-1,-1,-1,-1,-1,-1,-1,-1,-1,-1,-1,-1,-1,-1,-1,-1,-1,-1,-1,-1,-1,-1,-1,-1,-1,-1,-1,-1,-1,-1,-1,-1,-1,-1,-1,-1],"split_conditions":[3.9586008E4,1.8852426E4,7.2659E4,1.137573E4,2.867905E4,5.284014E4,8.7451484E4,6.16025E3,1.3254625E4,2.3726445E4,3.3753656E4,4.532339E4,6.1800867E4,7.763269E4,9.696816E4,4.1548604E3,8.499695E3,1.2498855E4,1.7041686E4,2.1053676E4,2.624341E4,3.084893E4,3.6734516E4,4.1938176E4,4.8896117E4,5.768253E4,6.682258E4,2.631879E3,2.8955403E3,9.269931E4,1.0363819E5,3.8237E3,5.18196E3,7.4048447E3,1.0029455E4,4.1380582E2,4.5489874E2,1.627082E4,6.188706E2,1.9892121E4,2.247349E4,2.5176406E4,2.753167E4,2.9919885E4,3.2276086E4,3.5508344E4,3.8613676E4,4.097129E4,4.381835E4,4.7183812E4,5.107696E4,5.519891E4,6.0250008E4,6.4402492E4,6.945336E4,3.1343918E3,3.3133157E3,3.4674412E3,3.7318743E3,1.2410183E2,1.3942404E2,1.6769975E2,1.9329405E2,2.4300345E2,2.7895026E2,3.230293E2,3.6889548E2,5.399921E2,5.827884E2,6.717695E2,7.128141E2,7.549612E2,8.071048E2,8.484671E2,8.996585E2,9.3742523E2,9.816491E2,1.0224738E3,1.059708E3,1.1001005E3,1.1521302E3,1.2046992E3,1.2602832E3,1.3116401E3,1.3650986E3,1.3999838E3,1.4486768E3,1.4947838E3,1.5526146E3,1.6162352E3,1.6743046E3,1.7376888E3,1.8090875E3,1.8900199E3,1.9733372E3,2.0541265E3,2.1264333E3,2.2026675E3,2.287582E3,2.3702703E3,2.471811E3],"split_indices":[0,0,0,0,0,0,0,0,0,0,0,0,0,0,0,0,0,2,0,0,0,0,0,0,0,0,0,0,0,0,0,0,0,0,0,0,0,0,0,0,0,0,0,0,0,0,0,0,0,0,0,0,0,0,0,0,0,0,0,0,0,0,0,0,0,0,0,0,0,0,0,0,0,0,0,0,0,0,0,0,0,0,0,0,0,0,0,0,0,0,0,0,0,0,0,0,0,0,0,0,0],"split_type":[0,0,0,0,0,0,0,0,0,0,0,0,0,0,0,0,0,0,0,0,0,0,0,0,0,0,0,0,0,0,0,0,0,0,0,0,0,0,0,0,0,0,0,0,0,0,0,0,0,0,0,0,0,0,0,0,0,0,0,0,0,0,0,0,0,0,0,0,0,0,0,0,0,0,0,0,0,0,0,0,0,0,0,0,0,0,0,0,0,0,0,0,0,0,0,0,0,0,0,0,0],"sum_hessian":[1.41749E5,8.382E4,5.7929E4,3.332E4,5.05E4,5.187E4,6.059E3,2.6536E4,6.784E3,2.713E4,2.337E4,2.3203E4,2.8667E4,6.14E2,5.445E3,9.931E3,1.6605E4,1.461E3,5.323E3,1.4203E4,1.2927E4,1.1499E4,1.1871E4,1.2645E4,1.0558E4,1.3567E4,1.51E4,4.22E2,1.92E2,2.741E3,2.704E3,6.959E3,2.972E3,7.932E3,8.673E3,1.283E3,1.78E2,3.891E3,1.432E3,7.514E3,6.689E3,4.437E3,8.49E3,8.248E3,3.251E3,5.356E3,6.515E3,4.594E3,8.051E3,6.413E3,4.145E3,5.782E3,7.785E3,8.677E3,6.423E3,7.07E2,2.034E3,2.203E3,5.01E2,3.889E3,3.07E3,1.055E3,1.917E3,2.844E3,5.088E3,4.427E3,4.246E3,3.08E2,3.583E3,3.744E3,3.77E3,3.352E3,3.337E3,1.962E3,2.475E3,5.191E3,3.299E3,4.702E3,3.546E3,1.604E3,1.647E3,3.231E3,2.125E3,4.189E3,2.326E3,2.418E3,2.176E3,5.796E3,2.255E3,3.142E3,3.271E3,2.629E3,1.516E3,1.885E3,3.897E3,4.514E3,3.271E3,5.26E3,3.417E3,4.446E3,1.977E3],"tree_param":{"num_deleted":"0","num_feature":"20","num_nodes":"101","size_leaf_vector":"0"}},{"base_weights":[1.1383618E4,6.413024E3,1.842051E4,2.7511047E3,8.8165E3,1.7082004E4,2.9821094E4,2.1843042E3,4.773382E3,7.3254004E3,1.04178E4,1.41288E4,1.9547348E4,2.4171875E4,3.0517172E4,1.3209734E3,2.7262546E3,3.69878E3,5.270649E3,6.520298E3,8.2006455E3,9.431943E3,1.1428723E4,1.3225509E4,1.5178851E4,1.821173E4,2.0728418E4,2.9183242E4,3.1494818E4,1.173974E3,1.6483839E3,2.383946E3,3.053304E3,3.6139072E3,3.8641052E3,5.1461475E3,5.379775E3,6.143837E3,6.886522E3,7.6945356E3,8.465319E3,9.218103E3,9.883045E3,1.0854892E4,1.183192E4,1.2667893E4,1.3508067E4,1.4679339E4,1.5754775E4,1.746934E4,1.8717244E4,2.0042156E4,2.150154E4,2.8059938E4,2.9594027E4,3.09171E4,3.304305E4,1.0266868E3,1.2075778E3,1.4841265E3,1.7294683E3,2.17511E3,2.4941167E3,2.8350056E3,3.2147908E3,4.6715205E3,5.172153E3,5.926674E3,6.2685317E3,6.72517E3,7.1689746E3,7.5013506E3,7.9363164E3,8.336856E3,8.671086E3,9.026033E3,9.35848E3,9.716546E3,1.0146889E4,1.0615047E4,1.1071306E4,1.1578002E4,1.2063651E4,1.3281288E4,1.3721695E4,1.4398314E4,1.486744E4,1.5528434E4,1.6222502E4,1.7030646E4,1.7733719E4,1.8400188E4,1.9050637E4,1.9752068E4,2.0442205E4,2.1030713E4,2.192372E4],"categories":[],"categories_nodes":[],"categories_segments":[],"categories_sizes":[],"default_left":[1,1,1,1,1,1,1,1,1,1,1,1,1,0,1,1,1,1,1,1,1,1,1,1,1,1,1,1,1,1,1,1,1,0,0,1,0,1,1,1,1,1,1,1,1,0,1,1,1,1,1,1,1,0,0,0,0,0,0,0,0,0,0,0,0,0,0,0,0,0,0,0,0,0,0,0,0,0,0,0,0,0,0,0,0,0,0,0,0,0,0,0,0,0,0,0,0],"id":11,"left_children":[1,3,5,7,9,11,13,15,17,19,21,23,25,-1,27,29,31,33,35,37,39,41,43,45,47,49,51,53,55,57,59,61,63,-1,-1,65,-1,67,69,71,73,75,77,79,81,-1,83,85,87,89,91,93,95,-1,-1,-1,-1,-1,-1,-1,-1,-1,-1,-1,-1,-1,-1,-1,-1,-1,-1,-1,-1,-1,-1,-1,-1,-1,-1,-1,-1,-1,-1,-1,-1,-1,-1,-1,-1,-1,-1,-1,-1,-1,-1,-1,-1],"loss_changes":[4.9579483E12,7.3112905E11,8.949009E11,3.772339E10,1.196766E11,3.8206754E11,2.350121E10,1.202801E10,3.8311363E9,1.8249417E10,2.3991419E10,2.246574E10,4.4767904E10,0E0,6.232736E9,4.7545754E8,1.7612145E9,1.8067456E7,3.9223296E7,1.8236047E9,1.6013722E9,1.0904535E9,2.6327122E9,1.8541445E9,2.9459743E9,4.716495E9,7.623672E9,2.4615322E8,1.7977836E9,3.2658432E7,3.8334976E7,1.7226547E8,2.755461E8,0E0,0E0,4.513792E6,0E0,1.4383514E8,2.6407731E8,1.4052557E8,1.4339277E8,1.399849E8,7.38263E7,1.3873971E8,2.7203994E8,0E0,2.3042458E8,9.935258E7,2.898002E8,3.3121894E8,4.9309286E8,5.313659E8,9.5525274E8,0E0,0E0,0E0,0E0,0E0,0E0,0E0,0E0,0E0,0E0,0E0,0E0,0E0,0E0,0E0,0E0,0E0,0E0,0E0,0E0,0E0,0E0,0E0,0E0,0E0,0E0,0E0,0E0,0E0,0E0,0E0,0E0,0E0,0E0,0E0,0E0,0E0,0E0,0E0,0E0,0E0,0E0,0E0,0E0],"parents":[2147483647,0,0,1,1,2,2,3,3,4,4,5,5,6,6,7,7,8,8,9,9,10,10,11,11,12,12,14,14,15,15,16,16,17,17,18,18,19,19,20,20,21,21,22,22,23,23,24,24,25,25,26,26,27,27,28,28,29,29,30,30,31,31,32,32,35,35,37,37,38,38,39,39,40,40,41,41,42,42,43,43,44,44,46,46,47,47,48,48,49,49,50,50,51,51,52,52],"right_children":[2,4,6,8,10,12,14,16,18,20,22,24,26,-1,28,30,32,34,36,38,40,42,44,46,48,50,52,54,56,58,60,62,64,-1,-1,66,-1,68,70,72,74,76,78,80,82,-1,84,86,88,90,92,94,96,-1,-1,-1,-1,-1,-1,-1,-1,-1,-1,-1,-1,-1,-1,-1,-1,-1,-1,-1,-1,-1,-1,-1,-1,-1,-1,-1,-1,-1,-1,-1,-1,-1,-1,-1,-1,-1,-1,-1,-1,-1,-1,-1,-1],"split_conditions":[3.9214305E4,1.7933445E4,7.230181E4,1.0836795E4,2.804491E4,5.266383E4,8.724253E4,6.117855E3,1.3144811E4,2.3244795E4,3.3045605E4,4.483165E4,6.1710508E4,2.4171875E3,9.629186E4,4.1235654E3,8.447025E3,1.1756225E4,1.6808705E4,2.061268E4,2.593931E4,3.0350031E4,3.6098285E4,4.1616074E4,4.8280688E4,5.749791E4,6.633358E4,9.212653E4,1.0162611E5,3.555815E3,5.15084E3,7.361315E3,9.59536E3,3.6139072E2,3.8641052E2,1.6097995E4,5.379775E2,1.9345215E4,2.238532E4,2.4523914E4,2.719681E4,2.9277719E4,3.1792205E4,3.452861E4,3.7701547E4,1.2667893E3,4.294158E4,4.6749758E4,5.0939E4,5.5333375E4,5.9647008E4,6.4029992E4,6.811436E4,2.805994E3,2.9594028E3,3.09171E3,3.3043052E3,1.0266868E2,1.20757774E2,1.4841264E2,1.7294682E2,2.1751102E2,2.4941167E2,2.8350058E2,3.214791E2,4.6715207E2,5.172153E2,5.926674E2,6.268532E2,6.72517E2,7.1689746E2,7.501351E2,7.9363165E2,8.3368567E2,8.671086E2,9.0260333E2,9.358481E2,9.716546E2,1.0146889E3,1.0615048E3,1.1071306E3,1.1578002E3,1.2063651E3,1.3281288E3,1.3721696E3,1.4398314E3,1.486744E3,1.5528434E3,1.6222502E3,1.7030647E3,1.773372E3,1.8400188E3,1.9050637E3,1.9752069E3,2.0442206E3,2.1030713E3,2.192372E3],"split_indices":[0,0,0,0,0,0,2,6,0,0,0,0,0,0,0,0,0,0,0,0,0,0,0,0,0,0,0,0,0,0,0,0,0,0,0,0,0,0,0,0,2,0,2,0,0,0,0,2,0,0,0,0,0,0,0,0,0,0,0,0,0,0,0,0,0,0,0,0,0,0,0,0,0,0,0,0,0,0,0,0,0,0,0,0,0,0,0,0,0,0,0,0,0,0,0,0,0],"split_type":[0,0,0,0,0,0,0,0,0,0,0,0,0,0,0,0,0,0,0,0,0,0,0,0,0,0,0,0,0,0,0,0,0,0,0,0,0,0,0,0,0,0,0,0,0,0,0,0,0,0,0,0,0,0,0,0,0,0,0,0,0,0,0,0,0,0,0,0,0,0,0,0,0,0,0,0,0,0,0,0,0,0,0,0,0,0,0,0,0,0,0,0,0,0,0,0,0],"sum_hessian":[1.41749E5,8.3072E4,5.8677E4,3.2919E4,5.0153E4,5.2514E4,6.163E3,2.5714E4,7.205E3,2.5973E4,2.418E4,2.3896E4,2.8618E4,6.8E2,5.483E3,9.918E3,1.5796E4,2.282E3,4.923E3,1.3533E4,1.244E4,1.2247E4,1.1933E4,1.2853E4,1.1043E4,1.3438E4,1.518E4,2.332E3,3.151E3,6.848E3,3.07E3,7.722E3,8.074E3,1.523E3,7.59E2,2.322E3,2.601E3,6.682E3,6.851E3,4.282E3,8.158E3,8.323E3,3.924E3,4.936E3,6.997E3,4.338E3,8.515E3,5.928E3,5.115E3,5.458E3,7.98E3,8.056E3,7.124E3,6.43E2,1.689E3,2.31E3,8.41E2,1.278E3,5.57E3,1.021E3,2.049E3,2.674E3,5.048E3,3.441E3,4.633E3,1.3E2,2.192E3,2.455E3,4.227E3,4.376E3,2.475E3,2.398E3,1.884E3,5.048E3,3.11E3,3.542E3,4.781E3,2.429E3,1.495E3,2.365E3,2.571E3,3.363E3,3.634E3,4.161E3,4.354E3,2.408E3,3.52E3,3.47E3,1.645E3,2.077E3,3.381E3,4.119E3,3.861E3,4.699E3,3.357E3,3.392E3,3.732E3],"tree_param":{"num_deleted":"0","num_feature":"20","num_nodes":"97","size_leaf_vector":"0"}},{"base_weights":[1.0245667E4,5.9322734E3,1.6815658E4,2.6443428E3,8.207081E3,1.5637454E4,2.7343562E4,2.066347E3,4.882401E3,7.13787E3,1.0163352E4,1.3053865E4,1.7799475E4,2.603882E4,2.8327725E4,1.264217E3,2.6029817E3,4.6965264E3,5.297907E3,6.123412E3,7.912141E3,9.35549E3,1.0760431E4,1.2211234E4,1.4058735E4,1.6810135E4,1.9044725E4,2.4571781E4,2.6509398E4,2.7693877E4,2.9507418E4,1.0821921E3,1.6567256E3,2.3101528E3,3.0072214E3,3.852413E3,4.7441885E3,5.7775376E3,6.546314E3,7.533865E3,8.3010205E3,8.901651E3,9.680654E3,1.0449352E4,1.1102682E4,1.1984338E4,1.2802318E4,1.3579998E4,1.478846E4,1.6176938E4,1.7341863E4,1.8555113E4,1.9891453E4,2.9039312E4,3.1357574E4,1.0218102E3,1.2161179E3,1.5345415E3,1.8652318E3,2.163586E3,2.4937715E3,2.8356836E3,3.2212E3,3.556195E3,4.0417578E3,4.671136E3,4.855338E3,5.601274E3,5.969306E3,6.352429E3,6.7537144E3,7.3137007E3,7.6936924E3,8.1335327E3,8.463014E3,9.477212E3,9.850725E3,1.029315E4,1.0664074E4,1.0910611E4,1.1248166E4,1.1774637E4,1.220867E4,1.3332576E4,1.384611E4,1.4436074E4,1.5209634E4,1.5819206E4,1.641393E4,1.6943723E4,1.7579846E4,1.817568E4,1.8833314E4,1.9627857E4,2.1110547E4],"categories":[],"categories_nodes":[],"categories_segments":[],"categories_sizes":[],"default_left":[1,1,1,1,1,1,1,1,1,1,1,1,1,1,1,1,1,1,0,1,1,1,1,1,1,1,1,0,0,0,1,1,1,1,1,1,1,1,1,1,1,0,1,1,1,1,0,1,1,1,1,1,1,0,0,0,0,0,0,0,0,0,0,0,0,0,0,0,0,0,0,0,0,0,0,0,0,0,0,0,0,0,0,0,0,0,0,0,0,0,0,0,0,0,0],"id":12,"left_children":[1,3,5,7,9,11,13,15,17,19,21,23,25,27,29,31,33,35,-1,37,39,41,43,45,47,49,51,-1,-1,-1,53,55,57,59,61,63,65,67,69,71,73,-1,75,77,79,81,-1,83,85,87,89,91,93,-1,-1,-1,-1,-1,-1,-1,-1,-1,-1,-1,-1,-1,-1,-1,-1,-1,-1,-1,-1,-1,-1,-1,-1,-1,-1,-1,-1,-1,-1,-1,-1,-1,-1,-1,-1,-1,-1,-1,-1,-1,-1],"loss_changes":[4.0169468E12,6.400065E11,6.9641804E11,4.525903E10,1.0571979E11,2.8199984E11,6.521094E9,1.1969266E10,5.2979302E8,2.5641746E10,8.519942E9,1.9322634E10,3.3565966E10,1.03520666E9,1.583874E9,7.949066E8,1.9656212E9,1.8172314E8,0E0,2.0336804E9,2.6656113E9,1.0357965E9,9.774039E8,1.5271199E9,3.4652815E9,4.8829563E9,4.6761247E9,0E0,0E0,0E0,4.816896E7,6.0386304E7,8.709427E7,2.5479578E8,2.4769331E8,8.26368E5,1.5491072E7,2.301952E8,2.1300838E8,2.7492352E8,1.7904435E8,0E0,5.950669E7,7.130317E7,1.3500416E7,2.8285338E8,0E0,2.3343923E8,3.9570637E8,3.351511E8,4.9073357E8,4.7316992E8,1.013973E9,0E0,0E0,0E0,0E0,0E0,0E0,0E0,0E0,0E0,0E0,0E0,0E0,0E0,0E0,0E0,0E0,0E0,0E0,0E0,0E0,0E0,0E0,0E0,0E0,0E0,0E0,0E0,0E0,0E0,0E0,0E0,0E0,0E0,0E0,0E0,0E0,0E0,0E0,0E0,0E0,0E0,0E0],"parents":[2147483647,0,0,1,1,2,2,3,3,4,4,5,5,6,6,7,7,8,8,9,9,10,10,11,11,12,12,13,13,14,14,15,15,16,16,17,17,19,19,20,20,21,21,22,22,23,23,24,24,25,25,26,26,30,30,31,31,32,32,33,33,34,34,35,35,36,36,37,37,38,38,39,39,40,40,42,42,43,43,44,44,45,45,47,47,48,48,49,49,50,50,51,51,52,52],"right_children":[2,4,6,8,10,12,14,16,18,20,22,24,26,28,30,32,34,36,-1,38,40,42,44,46,48,50,52,-1,-1,-1,54,56,58,60,62,64,66,68,70,72,74,-1,76,78,80,82,-1,84,86,88,90,92,94,-1,-1,-1,-1,-1,-1,-1,-1,-1,-1,-1,-1,-1,-1,-1,-1,-1,-1,-1,-1,-1,-1,-1,-1,-1,-1,-1,-1,-1,-1,-1,-1,-1,-1,-1,-1,-1,-1,-1,-1,-1,-1],"split_conditions":[4.0484977E4,1.9269824E4,7.679222E4,1.2453595E4,3.047596E4,5.4913477E4,9.612955E4,7.182075E3,1.770665E4,2.4720031E4,3.5740242E4,4.6496625E4,6.3462008E4,9.108722E4,1.0051495E5,5.06373E3,9.522141E3,1.5951035E4,5.297907E2,2.169669E4,2.795276E4,3.281433E4,3.8251676E4,4.3963117E4,5.0052574E4,5.912743E4,6.798379E4,2.4571782E3,2.65094E3,2.7693877E3,1.05321586E5,3.951125E3,5.9617E3,8.18671E3,1.0500029E4,1.2762995E4,1.6853281E4,2.04317E4,2.3159324E4,2.6575945E4,2.9392676E4,8.9016516E2,3.426004E4,3.723903E4,3.911675E4,4.258687E4,1.2802318E3,4.8016633E4,5.2165797E4,5.7015676E4,6.09349E4,6.553959E4,7.137775E4,2.9039314E3,3.1357576E3,1.0218102E2,1.2161179E2,1.5345415E2,1.8652318E2,2.163586E2,2.4937715E2,2.8356836E2,3.2212E2,3.556195E2,4.0417578E2,4.6711362E2,4.8553378E2,5.601274E2,5.969306E2,6.352429E2,6.7537146E2,7.3137006E2,7.6936926E2,8.133533E2,8.463014E2,9.477212E2,9.8507245E2,1.0293151E3,1.0664075E3,1.0910612E3,1.1248167E3,1.1774637E3,1.2208671E3,1.3332577E3,1.3846111E3,1.4436074E3,1.5209634E3,1.5819207E3,1.641393E3,1.6943723E3,1.7579846E3,1.817568E3,1.8833314E3,1.9627858E3,2.1110547E3],"split_indices":[0,0,0,2,0,0,0,0,0,0,2,0,0,0,0,0,0,0,0,0,0,0,0,0,0,0,0,0,0,0,0,0,0,0,0,3,0,0,0,0,0,0,0,0,0,0,0,0,0,0,0,0,0,0,0,0,0,0,0,0,0,0,0,0,0,0,0,0,0,0,0,0,0,0,0,0,0,0,0,0,0,0,0,0,0,0,0,0,0,0,0,0,0,0,0],"split_type":[0,0,0,0,0,0,0,0,0,0,0,0,0,0,0,0,0,0,0,0,0,0,0,0,0,0,0,0,0,0,0,0,0,0,0,0,0,0,0,0,0,0,0,0,0,0,0,0,0,0,0,0,0,0,0,0,0,0,0,0,0,0,0,0,0,0,0,0,0,0,0,0,0,0,0,0,0,0,0,0,0,0,0,0,0,0,0,0,0,0,0,0,0,0,0],"sum_hessian":[1.41749E5,8.5571E4,5.6178E4,3.4994E4,5.0577E4,5.0526E4,5.652E3,2.7813E4,7.181E3,3.2706E4,1.7871E4,2.3022E4,2.7504E4,2.442E3,3.21E3,1.115E4,1.6663E4,4.97E3,2.211E3,1.4161E4,1.8545E4,7.602E3,1.0269E4,1.2529E4,1.0493E4,1.5335E4,1.2169E4,6.06E2,1.836E3,2.104E3,1.106E3,7.62E3,3.53E3,9.667E3,6.996E3,2.7E2,4.7E3,7.798E3,6.363E3,9.411E3,9.134E3,3.185E3,4.417E3,5.396E3,4.873E3,9.069E3,3.46E3,6.348E3,4.145E3,7.014E3,8.321E3,7.725E3,4.444E3,8.96E2,2.1E2,5.258E3,2.362E3,2.231E3,1.299E3,5.383E3,4.284E3,3.891E3,3.105E3,1.13E2,1.57E2,2.862E3,1.838E3,4.079E3,3.719E3,3.305E3,3.058E3,3.978E3,5.433E3,4.516E3,4.618E3,2.037E3,2.38E3,3.152E3,2.244E3,2.133E3,2.74E3,4.715E3,4.354E3,3.316E3,3.032E3,2.276E3,1.869E3,2.822E3,4.192E3,3.14E3,5.181E3,3.296E3,4.429E3,3.668E3,7.76E2],"tree_param":{"num_deleted":"0","num_feature":"20","num_nodes":"95","size_leaf_vector":"0"}},{"base_weights":[9.221484E3,5.346542E3,1.514597E4,2.3891396E3,7.4001523E3,1.4084959E4,2.4621303E4,1.8529452E3,4.377533E3,6.4556772E3,9.203532E3,1.1759225E4,1.60227705E4,2.3383441E4,2.5448666E4,1.1447202E3,2.340515E3,4.181141E3,4.749731E3,5.5351553E3,7.1573823E3,8.489278E3,9.702407E3,1.1074975E4,1.2758675E4,1.5110902E4,1.7118812E4,2.235828E4,2.3894785E4,2.4881541E4,2.654108E4,9.755313E2,1.5032805E3,2.0797878E3,2.692103E3,3.2616428E3,4.2512935E3,4.504279E3,4.786035E3,5.259889E3,5.9926157E3,6.8073228E3,7.50112E3,8.074273E3,8.731699E3,9.451106E3,1.0043153E4,1.0807339E4,1.1645298E4,1.2405043E4,1.3503366E4,1.4539543E4,1.5569677E4,1.6668361E4,1.7887795E4,2.054361E4,2.2700457E4,2.6114902E4,2.8189334E4,9.247424E2,1.1111748E3,1.3812872E3,1.6791357E3,1.9734137E3,2.2771277E3,2.5737363E3,2.9355645E3,4.0674797E3,4.293933E3,5.06049E3,5.443894E3,5.866796E3,6.175843E3,6.638414E3,6.9607993E3,7.349731E3,7.6595444E3,8.525851E3,8.872055E3,9.279796E3,9.629156E3,1.0612653E4,1.1005452E4,1.14667295E4,1.1822349E4,1.2217765E4,1.2740171E4,1.3194325E4,1.372889E4,1.4208868E4,1.4733102E4,1.5324202E4,1.5894047E4,1.6339115E4,1.69369E4,1.7606053E4,1.884014E4],"categories":[],"categories_nodes":[],"categories_segments":[],"categories_sizes":[],"default_left":[1,1,1,1,1,1,1,1,1,1,1,1,1,1,1,1,1,1,1,1,1,1,1,1,1,1,1,1,0,0,1,1,1,1,1,0,1,0,0,1,1,1,1,0,1,1,0,1,1,1,1,1,1,1,1,0,0,0,0,0,0,0,0,0,0,0,0,0,0,0,0,0,0,0,0,0,0,0,0,0,0,0,0,0,0,0,0,0,0,0,0,0,0,0,0,0,0],"id":13,"left_children":[1,3,5,7,9,11,13,15,17,19,21,23,25,27,29,31,33,35,37,39,41,43,45,47,49,51,53,55,-1,-1,57,59,61,63,65,-1,67,-1,-1,69,71,73,75,-1,77,79,-1,81,83,85,87,89,91,93,95,-1,-1,-1,-1,-1,-1,-1,-1,-1,-1,-1,-1,-1,-1,-1,-1,-1,-1,-1,-1,-1,-1,-1,-1,-1,-1,-1,-1,-1,-1,-1,-1,-1,-1,-1,-1,-1,-1,-1,-1,-1,-1],"loss_changes":[3.2540795E12,5.2046856E11,5.631587E11,3.7438816E10,8.6087565E10,2.2699678E11,5.18416E9,9.550299E9,5.2536934E8,2.1403533E10,6.111232E9,1.5529673E10,2.7221033E10,6.57195E8,1.4280294E9,6.829486E8,1.4963016E9,3.0162125E8,1.335296E6,1.777238E9,2.2151823E9,6.49429E8,7.807959E8,1.9516621E9,2.2831432E9,3.710124E9,4.0244347E9,1.3008896E7,0E0,0E0,6.2521344E7,5.179853E7,7.523379E7,1.9308134E8,1.9339264E8,0E0,1.8128896E7,0E0,0E0,3.017769E8,8.799846E7,1.959854E8,1.7137664E8,0E0,5.452595E7,9.070182E7,0E0,2.410414E8,1.507328E6,2.4110694E8,2.6902528E7,2.1980774E8,4.185129E8,4.203479E8,9.016443E8,0E0,0E0,0E0,0E0,0E0,0E0,0E0,0E0,0E0,0E0,0E0,0E0,0E0,0E0,0E0,0E0,0E0,0E0,0E0,0E0,0E0,0E0,0E0,0E0,0E0,0E0,0E0,0E0,0E0,0E0,0E0,0E0,0E0,0E0,0E0,0E0,0E0,0E0,0E0,0E0,0E0,0E0],"parents":[2147483647,0,0,1,1,2,2,3,3,4,4,5,5,6,6,7,7,8,8,9,9,10,10,11,11,12,12,13,13,14,14,15,15,16,16,17,17,18,18,19,19,20,20,21,21,22,22,23,23,24,24,25,25,26,26,27,27,30,30,31,31,32,32,33,33,34,34,36,36,39,39,40,40,41,41,42,42,44,44,45,45,47,47,48,48,49,49,50,50,51,51,52,52,53,53,54,54],"right_children":[2,4,6,8,10,12,14,16,18,20,22,24,26,28,30,32,34,36,38,40,42,44,46,48,50,52,54,56,-1,-1,58,60,62,64,66,-1,68,-1,-1,70,72,74,76,-1,78,80,-1,82,84,86,88,90,92,94,96,-1,-1,-1,-1,-1,-1,-1,-1,-1,-1,-1,-1,-1,-1,-1,-1,-1,-1,-1,-1,-1,-1,-1,-1,-1,-1,-1,-1,-1,-1,-1,-1,-1,-1,-1,-1,-1,-1,-1,-1,-1,-1],"split_conditions":[4.056753E4,1.929645E4,7.7253016E4,1.2021285E4,3.066401E4,5.4926453E4,9.577511E4,7.19513E3,1.7380695E4,2.5176406E4,3.587395E4,4.70794E4,6.329165E4,9.196555E4,1.0035591E5,5.07773E3,9.48582E3,1.55895E4,1.785316E4,2.242009E4,2.8028E4,3.2884242E4,3.855897E4,4.4103285E4,5.1204242E4,5.898711E4,6.7908E4,8.5441016E4,2.3894785E3,2.488154E3,1.0524353E5,3.974085E3,5.940635E3,8.369676E3,1.0701375E4,3.2616428E2,1.655804E4,4.504279E2,4.7860352E2,2.0561266E4,2.3572195E4,2.6787102E4,2.949696E4,8.074273E2,3.4211258E4,3.7261883E4,1.00431537E3,4.2620895E4,4.597105E4,4.916472E4,5.2493734E4,5.6875773E4,6.1524895E4,6.5516406E4,7.098211E4,2.054361E3,2.2700457E3,2.6114902E3,2.8189333E3,9.2474236E1,1.11117485E2,1.3812872E2,1.6791357E2,1.9734137E2,2.2771277E2,2.5737363E2,2.9355646E2,4.06748E2,4.293933E2,5.0604904E2,5.443894E2,5.866796E2,6.175843E2,6.6384143E2,6.9607996E2,7.349731E2,7.6595447E2,8.525851E2,8.872055E2,9.279796E2,9.6291565E2,1.0612654E3,1.1005453E3,1.146673E3,1.1822349E3,1.2217765E3,1.2740171E3,1.3194325E3,1.372889E3,1.4208868E3,1.4733102E3,1.5324203E3,1.5894047E3,1.6339115E3,1.6936901E3,1.7606053E3,1.884014E3],"split_indices":[0,0,2,1,0,0,0,0,0,0,7,0,0,0,0,0,0,3,0,0,0,0,0,0,0,0,0,1,0,0,0,0,0,2,0,0,0,0,0,0,0,0,0,0,0,0,0,0,0,0,0,0,0,0,0,0,0,0,0,0,0,0,0,0,0,0,0,0,0,0,0,0,0,0,0,0,0,0,0,0,0,0,0,0,0,0,0,0,0,0,0,0,0,0,0,0,0],"split_type":[0,0,0,0,0,0,0,0,0,0,0,0,0,0,0,0,0,0,0,0,0,0,0,0,0,0,0,0,0,0,0,0,0,0,0,0,0,0,0,0,0,0,0,0,0,0,0,0,0,0,0,0,0,0,0,0,0,0,0,0,0,0,0,0,0,0,0,0,0,0,0,0,0,0,0,0,0,0,0,0,0,0,0,0,0,0,0,0,0,0,0,0,0,0,0,0,0],"sum_hessian":[1.41749E5,8.5699E4,5.605E4,3.5122E4,5.0577E4,5.0408E4,5.642E3,2.7664E4,7.458E3,3.3196E4,1.7381E4,2.2914E4,2.7494E4,2.272E3,3.37E3,1.1281E4,1.6383E4,4.89E3,2.568E3,1.4363E4,1.8833E4,7.155E3,1.0226E4,1.3609E4,9.305E3,1.5016E4,1.2478E4,7.71E2,1.501E3,2.234E3,1.136E3,7.667E3,3.614E3,9.411E3,6.972E3,3.5E2,4.54E3,3.47E2,2.221E3,8.975E3,5.388E3,9.341E3,9.492E3,2.651E3,4.504E3,5.902E3,4.324E3,9.276E3,4.333E3,6.321E3,2.984E3,6.702E3,8.314E3,7.883E3,4.595E3,1.32E2,6.39E2,9.16E2,2.2E2,5.584E3,2.083E3,2.139E3,1.475E3,6.122E3,3.289E3,4.699E3,2.273E3,8.73E2,3.667E3,4.321E3,4.654E3,3.214E3,2.174E3,4.468E3,4.873E3,4.878E3,4.614E3,1.851E3,2.653E3,3.035E3,2.867E3,4.706E3,4.57E3,2.19E3,2.143E3,4.079E3,2.242E3,1.284E3,1.7E3,2.502E3,4.2E3,4.76E3,3.554E3,3.569E3,4.314E3,3.561E3,1.034E3],"tree_param":{"num_deleted":"0","num_feature":"20","num_nodes":"97","size_leaf_vector":"0"}},{"base_weights":[8.299698E3,4.7370366E3,1.3520148E4,2.0801455E3,6.5385415E3,1.25272E4,2.1714234E4,1.6365647E3,3.7488206E3,5.5020645E3,7.7971855E3,1.0424944E4,1.4295815E4,1.7535932E4,2.2249277E4,9.984381E2,2.053669E3,2.838488E3,3.9257566E3,4.883096E3,6.171975E3,7.0640327E3,8.48801E3,9.7757705E3,1.1241525E4,1.3457625E4,1.5236379E4,2.1630328E4,2.3462076E4,8.6722894E2,1.2891384E3,1.8249044E3,2.346947E3,2.7732947E3,3.2286184E3,3.8231802E3,4.187295E3,4.6032637E3,5.2135176E3,5.976146E3,6.437905E3,6.8754946E3,7.5171294E3,8.1464717E3,8.800894E3,9.504779E3,1.0093233E4,1.0919491E4,1.1805242E4,1.29191045E4,1.3877163E4,1.4814587E4,1.5790773E4,2.0820166E4,2.2057836E4,2.3082807E4,2.4950041E4,8.2228204E2,9.601916E2,1.199245E3,1.4407949E3,1.6838593E3,1.952029E3,2.2241077E3,2.5099238E3,3.7054568E3,3.866186E3,4.4655996E3,4.752377E3,5.0295195E3,5.363769E3,5.7555625E3,6.0909336E3,6.3253276E3,6.5235576E3,6.761925E3,7.0186274E3,7.3049614E3,7.633525E3,7.9626567E3,8.332733E3,8.668218E3,9.009366E3,9.252509E3,9.66852E3,9.964862E3,1.0398306E4,1.0729422E4,1.1142197E4,1.1581622E4,1.2131361E4,1.2562956E4,1.3102694E4,1.3612598E4,1.4137356E4,1.4583899E4,1.5084338E4,1.5662692E4,1.6413756E4],"categories":[],"categories_nodes":[],"categories_segments":[],"categories_sizes":[],"default_left":[1,1,1,1,1,1,1,1,1,1,1,1,1,0,1,1,1,1,1,1,1,1,1,1,1,1,1,1,1,1,1,1,1,0,0,1,0,1,1,1,1,1,1,1,1,1,1,1,1,1,1,1,1,0,0,0,0,0,0,0,0,0,0,0,0,0,0,0,0,0,0,0,0,0,0,0,0,0,0,0,0,0,0,0,0,0,0,0,0,0,0,0,0,0,0,0,0,0,0],"id":14,"left_children":[1,3,5,7,9,11,13,15,17,19,21,23,25,-1,27,29,31,33,35,37,39,41,43,45,47,49,51,53,55,57,59,61,63,-1,-1,65,-1,67,69,71,73,75,77,79,81,83,85,87,89,91,93,95,97,-1,-1,-1,-1,-1,-1,-1,-1,-1,-1,-1,-1,-1,-1,-1,-1,-1,-1,-1,-1,-1,-1,-1,-1,-1,-1,-1,-1,-1,-1,-1,-1,-1,-1,-1,-1,-1,-1,-1,-1,-1,-1,-1,-1,-1,-1],"loss_changes":[2.6363025E12,4.0326005E11,4.6754116E11,2.5194447E10,6.545762E10,1.9053255E11,1.349963E10,7.1572685E9,1.140351E9,1.1388584E10,1.1422925E10,1.231369E10,2.1751136E10,0E0,3.6241408E9,4.044892E8,1.0869637E9,2.0726784E7,1.4449869E8,1.2998738E9,6.500516E8,8.884388E8,1.1751916E9,1.0279977E9,1.7541366E9,3.1496602E9,2.8332524E9,8.074035E8,4.6700954E8,2.9837824E7,4.3329024E7,1.6063078E8,1.3703987E8,0E0,0E0,7.491584E6,0E0,1.3810074E8,1.543209E8,1.581056E8,1.2681216E7,7.906918E7,2.383872E7,1.2510822E8,8.998093E7,2.0237517E8,1.3133414E8,1.6043213E8,1.336279E8,2.5821184E8,3.76832E8,2.4458035E8,1.9385549E8,0E0,0E0,0E0,0E0,0E0,0E0,0E0,0E0,0E0,0E0,0E0,0E0,0E0,0E0,0E0,0E0,0E0,0E0,0E0,0E0,0E0,0E0,0E0,0E0,0E0,0E0,0E0,0E0,0E0,0E0,0E0,0E0,0E0,0E0,0E0,0E0,0E0,0E0,0E0,0E0,0E0,0E0,0E0,0E0,0E0,0E0],"parents":[2147483647,0,0,1,1,2,2,3,3,4,4,5,5,6,6,7,7,8,8,9,9,10,10,11,11,12,12,14,14,15,15,16,16,17,17,18,18,19,19,20,20,21,21,22,22,23,23,24,24,25,25,26,26,27,27,28,28,29,29,30,30,31,31,32,32,35,35,37,37,38,38,39,39,40,40,41,41,42,42,43,43,44,44,45,45,46,46,47,47,48,48,49,49,50,50,51,51,52,52],"right_children":[2,4,6,8,10,12,14,16,18,20,22,24,26,-1,28,30,32,34,36,38,40,42,44,46,48,50,52,54,56,58,60,62,64,-1,-1,66,-1,68,70,72,74,76,78,80,82,84,86,88,90,92,94,96,98,-1,-1,-1,-1,-1,-1,-1,-1,-1,-1,-1,-1,-1,-1,-1,-1,-1,-1,-1,-1,-1,-1,-1,-1,-1,-1,-1,-1,-1,-1,-1,-1,-1,-1,-1,-1,-1,-1,-1,-1,-1,-1,-1,-1,-1,-1],"split_conditions":[3.9770492E4,1.911468E4,7.202949E4,1.155379E4,2.9141625E4,5.4239934E4,8.607611E4,7.121225E3,1.5834125E4,2.4124215E4,3.4197188E4,4.6075355E4,6.2790914E4,1.7535931E3,9.837517E4,5.00283E3,9.19858E3,1.2632016E4,1.7222844E4,2.132323E4,2.720631E4,3.15795E4,3.722148E4,4.2867273E4,4.958195E4,5.8334297E4,6.7101734E4,9.427814E4,1.04477625E5,3.9199849E3,5.589295E3,7.952635E3,1.031546E4,2.7732947E2,3.2286185E2,1.662934E4,4.187295E2,2.016423E4,2.2811324E4,2.6005545E4,2.792869E4,3.012085E4,3.2515879E4,3.5690633E4,3.8771688E4,4.146786E4,4.44995E4,4.776137E4,5.1673305E4,5.6179992E4,6.0778035E4,6.48566E4,7.031029E4,2.0820166E3,2.2057837E3,2.3082808E3,2.4950042E3,8.22282E1,9.601916E1,1.199245E2,1.440795E2,1.6838593E2,1.9520291E2,2.2241077E2,2.5099239E2,3.705457E2,3.8661862E2,4.4655997E2,4.752377E2,5.0295197E2,5.363769E2,5.755563E2,6.090934E2,6.325328E2,6.523558E2,6.761925E2,7.0186273E2,7.3049615E2,7.633525E2,7.962657E2,8.332734E2,8.668218E2,9.0093665E2,9.252509E2,9.66852E2,9.9648627E2,1.0398306E3,1.0729423E3,1.1142197E3,1.1581622E3,1.2131361E3,1.2562957E3,1.3102694E3,1.3612598E3,1.4137357E3,1.45839E3,1.5084338E3,1.5662693E3,1.6413756E3],"split_indices":[0,0,3,0,0,0,0,0,0,0,2,0,0,0,0,0,0,3,0,0,0,2,2,0,0,0,0,0,0,0,12,0,0,0,0,2,0,0,0,0,0,0,0,0,0,0,0,0,0,0,0,0,0,0,0,0,0,0,0,0,0,0,0,0,0,0,0,0,0,0,0,0,0,0,0,0,0,0,0,0,0,0,0,0,0,0,0,0,0,0,0,0,0,0,0,0,0,0,0],"split_type":[0,0,0,0,0,0,0,0,0,0,0,0,0,0,0,0,0,0,0,0,0,0,0,0,0,0,0,0,0,0,0,0,0,0,0,0,0,0,0,0,0,0,0,0,0,0,0,0,0,0,0,0,0,0,0,0,0,0,0,0,0,0,0,0,0,0,0,0,0,0,0,0,0,0,0,0,0,0,0,0,0,0,0,0,0,0,0,0,0,0,0,0,0,0,0,0,0,0,0],"sum_hessian":[1.41749E5,8.4253E4,5.7496E4,3.4045E4,5.0208E4,5.1284E4,6.212E3,2.6897E4,7.148E3,2.7537E4,2.2671E4,2.3435E4,2.7849E4,7.09E2,5.503E3,1.0633E4,1.6264E4,1.166E3,5.982E3,1.4317E4,1.322E4,1.1004E4,1.1667E4,1.3063E4,1.0372E4,1.4734E4,1.3115E4,3.656E3,1.847E3,7.329E3,3.304E3,9.141E3,7.123E3,1.006E3,1.6E2,4.308E3,1.674E3,7.76E3,6.557E3,7.627E3,5.593E3,7.782E3,3.222E3,5.591E3,6.076E3,7.064E3,5.999E3,6.614E3,3.758E3,6.466E3,8.268E3,7.464E3,5.651E3,1.28E3,2.376E3,1.485E3,3.62E2,4.947E3,2.382E3,2.08E3,1.224E3,4.34E3,4.801E3,4.07E3,3.053E3,1.176E3,3.132E3,4.051E3,3.709E3,2.963E3,3.594E3,2.628E3,4.999E3,2.449E3,3.144E3,4.366E3,3.416E3,1.164E3,2.058E3,2.836E3,2.755E3,3.739E3,2.337E3,2.803E3,4.261E3,4.246E3,1.753E3,3.595E3,3.019E3,2.251E3,1.507E3,2.223E3,4.243E3,4.126E3,4.142E3,4.053E3,3.411E3,4.709E3,9.42E2],"tree_param":{"num_deleted":"0","num_feature":"20","num_nodes":"99","size_leaf_vector":"0"}},{"base_weights":[7.4700435E3,4.2814575E3,1.2195203E4,1.8888036E3,5.913998E3,1.1309124E4,1.9638943E4,1.473482E3,3.3955664E3,5.098036E3,7.2269756E3,9.455939E3,1.2926149E4,1.6521744E4,2.011342E4,9.1172253E2,1.8579404E3,2.5622534E3,3.5502783E3,4.4171606E3,5.680926E3,6.601745E3,7.7384414E3,8.822922E3,1.0194232E4,1.2209718E4,1.37866875E4,1.5531794E4,1.7640258E4,1.967594E4,2.1407955E4,7.8264166E2,1.1829182E3,1.6667753E3,2.134675E3,2.4995415E3,2.935096E3,3.4584375E3,3.833485E3,4.168735E3,4.7245146E3,5.4276997E3,5.9481035E3,6.334997E3,6.928869E3,7.458519E3,7.972757E3,8.610908E3,9.145584E3,9.854744E3,1.0742604E4,1.1754293E4,1.2588295E4,1.3442228E4,1.4327971E4,1.9043057E4,2.0039125E4,2.1105203E4,2.3015436E4,6.6428937E2,8.1507733E2,1.0858206E3,1.3144958E3,1.5350278E3,1.7802002E3,2.0302761E3,2.2714229E3,3.3918772E3,3.5353264E3,4.0348538E3,4.2995933E3,4.5693325E3,4.863626E3,5.235313E3,5.531599E3,5.8062764E3,6.048256E3,6.2613364E3,6.4678066E3,6.7957935E3,7.0337876E3,7.314394E3,7.5820044E3,7.83905E3,8.133804E3,8.354543E3,8.73634E3,9.010637E3,9.367893E3,9.687707E3,1.0082266E4,1.0505174E4,1.1068577E4,1.1552266E4,1.1990164E4,1.231326E4,1.2777146E4,1.3188892E4,1.3648532E4,1.4177254E4,1.4901268E4],"categories":[],"categories_nodes":[],"categories_segments":[],"categories_sizes":[],"default_left":[1,1,1,1,1,1,1,1,1,1,1,1,1,1,1,1,1,1,1,1,1,1,1,1,1,1,1,0,0,1,1,1,1,1,1,0,0,1,0,1,1,1,1,1,1,1,1,1,1,1,1,1,1,1,1,0,0,0,0,0,0,0,0,0,0,0,0,0,0,0,0,0,0,0,0,0,0,0,0,0,0,0,0,0,0,0,0,0,0,0,0,0,0,0,0,0,0,0,0,0,0],"id":15,"left_children":[1,3,5,7,9,11,13,15,17,19,21,23,25,27,29,31,33,35,37,39,41,43,45,47,49,51,53,-1,-1,55,57,59,61,63,65,-1,-1,67,-1,69,71,73,75,77,79,81,83,85,87,89,91,93,95,97,99,-1,-1,-1,-1,-1,-1,-1,-1,-1,-1,-1,-1,-1,-1,-1,-1,-1,-1,-1,-1,-1,-1,-1,-1,-1,-1,-1,-1,-1,-1,-1,-1,-1,-1,-1,-1,-1,-1,-1,-1,-1,-1,-1,-1,-1,-1],"loss_changes":[2.1356353E12,3.3059373E11,3.7648073E11,2.1477777E10,5.3862334E10,1.5282628E11,8.651276E9,5.8107904E9,9.4713446E8,1.2290359E10,6.114312E9,1.1026956E10,1.663461E10,6.2069146E8,2.56154E9,3.8193664E8,8.416584E8,1.9902976E7,1.4938112E8,1.07351245E9,1.0986127E9,7.1368704E8,6.356992E8,7.9783526E8,1.9372442E9,2.417754E9,2.1144535E9,0E0,0E0,5.26123E8,1.5617229E8,2.7915776E7,4.3608064E7,1.3854106E8,8.852685E7,0E0,0E0,1.2222464E7,0E0,1.2152013E8,1.1576934E8,1.4280294E8,8.024883E7,6.406144E6,6.504448E6,3.0769152E7,6.016205E7,1.762263E8,6.753485E7,1.6043213E8,2.0761805E8,1.8402509E8,2.6411008E8,2.1613773E8,2.0322714E8,0E0,0E0,0E0,0E0,0E0,0E0,0E0,0E0,0E0,0E0,0E0,0E0,0E0,0E0,0E0,0E0,0E0,0E0,0E0,0E0,0E0,0E0,0E0,0E0,0E0,0E0,0E0,0E0,0E0,0E0,0E0,0E0,0E0,0E0,0E0,0E0,0E0,0E0,0E0,0E0,0E0,0E0,0E0,0E0,0E0,0E0],"parents":[2147483647,0,0,1,1,2,2,3,3,4,4,5,5,6,6,7,7,8,8,9,9,10,10,11,11,12,12,13,13,14,14,15,15,16,16,17,17,18,18,19,19,20,20,21,21,22,22,23,23,24,24,25,25,26,26,29,29,30,30,31,31,32,32,33,33,34,34,37,37,39,39,40,40,41,41,42,42,43,43,44,44,45,45,46,46,47,47,48,48,49,49,50,50,51,51,52,52,53,53,54,54],"right_children":[2,4,6,8,10,12,14,16,18,20,22,24,26,28,30,32,34,36,38,40,42,44,46,48,50,52,54,-1,-1,56,58,60,62,64,66,-1,-1,68,-1,70,72,74,76,78,80,82,84,86,88,90,92,94,96,98,100,-1,-1,-1,-1,-1,-1,-1,-1,-1,-1,-1,-1,-1,-1,-1,-1,-1,-1,-1,-1,-1,-1,-1,-1,-1,-1,-1,-1,-1,-1,-1,-1,-1,-1,-1,-1,-1,-1,-1,-1,-1,-1,-1,-1,-1,-1],"split_conditions":[3.9969812E4,1.9153625E4,7.25515E4,1.156212E4,2.9966379E4,5.478402E4,8.971564E4,7.1547E3,1.5894641E4,2.444267E4,3.4743484E4,4.616004E4,6.3140008E4,7.763269E4,9.973969E4,5.01462E3,9.35884E3,1.2791141E4,1.7733629E4,2.1479871E4,2.7556785E4,3.2096375E4,3.731707E4,4.3255754E4,4.9864004E4,5.892317E4,6.7639625E4,1.5531794E3,1.7640258E3,9.507519E4,1.0548045E5,3.5760552E3,5.6618447E3,7.99214E3,1.0351936E4,2.4995415E2,2.935096E2,1.6831191E4,3.833485E2,2.020975E4,2.2963574E4,2.6131545E4,2.8820945E4,3.072509E4,3.383841E4,3.6244617E4,3.8811465E4,4.1535992E4,4.44995E4,4.800325E4,5.2116094E4,5.7349617E4,6.085615E4,6.5050562E4,7.048091E4,1.9043057E3,2.0039125E3,2.1105203E3,2.3015437E3,6.642894E1,8.150774E1,1.08582054E2,1.3144958E2,1.5350279E2,1.7802002E2,2.0302762E2,2.2714229E2,3.391877E2,3.5353265E2,4.0348538E2,4.2995932E2,4.5693326E2,4.863626E2,5.235313E2,5.531599E2,5.806276E2,6.048256E2,6.2613367E2,6.467807E2,6.7957935E2,7.033788E2,7.314394E2,7.5820044E2,7.8390497E2,8.1338043E2,8.354543E2,8.73634E2,9.0106366E2,9.3678925E2,9.687707E2,1.00822656E3,1.0505175E3,1.1068578E3,1.1552266E3,1.1990165E3,1.231326E3,1.2777147E3,1.3188892E3,1.3648533E3,1.4177255E3,1.4901268E3],"split_indices":[0,0,0,0,0,0,0,0,0,2,0,0,0,0,0,3,0,0,0,0,0,0,3,2,0,0,0,0,0,2,0,0,3,0,0,0,0,0,0,0,0,0,0,0,2,0,0,0,0,0,0,0,0,0,0,0,0,0,0,0,0,0,0,0,0,0,0,0,0,0,0,0,0,0,0,0,0,0,0,0,0,0,0,0,0,0,0,0,0,0,0,0,0,0,0,0,0,0,0,0,0],"split_type":[0,0,0,0,0,0,0,0,0,0,0,0,0,0,0,0,0,0,0,0,0,0,0,0,0,0,0,0,0,0,0,0,0,0,0,0,0,0,0,0,0,0,0,0,0,0,0,0,0,0,0,0,0,0,0,0,0,0,0,0,0,0,0,0,0,0,0,0,0,0,0,0,0,0,0,0,0,0,0,0,0,0,0,0,0,0,0,0,0,0,0,0,0,0,0,0,0,0,0,0,0],"sum_hessian":[1.41749E5,8.4637E4,5.7112E4,3.4328E4,5.0309E4,5.1039E4,6.073E3,2.6912E4,7.416E3,3.103E4,1.9279E4,2.3786E4,2.7253E4,8.07E2,5.266E3,1.0936E4,1.5976E4,1.164E3,6.252E3,1.4316E4,1.6714E4,8.681E3,1.0598E4,1.2813E4,1.0973E4,1.488E4,1.2373E4,4.36E2,3.71E2,3.948E3,1.318E3,7.412E3,3.524E3,9.453E3,6.523E3,1.003E3,1.61E2,4.731E3,1.521E3,7.925E3,6.391E3,8.592E3,8.122E3,4.793E3,3.888E3,4.844E3,5.754E3,7.749E3,5.064E3,6.789E3,4.184E3,6.769E3,8.111E3,7.577E3,4.796E3,1.459E3,2.489E3,1.121E3,1.97E2,1.599E3,5.813E3,2.033E3,1.491E3,4.38E3,5.073E3,3.708E3,2.815E3,2.56E3,2.171E3,3.933E3,3.992E3,3.037E3,3.354E3,3.031E3,5.561E3,3.386E3,4.736E3,3.114E3,1.679E3,1.743E3,2.145E3,2.263E3,2.581E3,3.171E3,2.583E3,2.568E3,5.181E3,3.177E3,1.887E3,3.94E3,2.849E3,2.44E3,1.744E3,3.673E3,3.096E3,3.329E3,4.782E3,3.43E3,4.147E3,3.818E3,9.78E2],"tree_param":{"num_deleted":"0","num_feature":"20","num_nodes":"101","size_leaf_vector":"0"}},{"base_weights":[6.723338E3,3.9156316E3,1.1070737E4,1.8004994E3,5.4552354E3,1.0293203E4,1.7958238E4,1.3564298E3,3.262637E3,4.7651494E3,6.762162E3,8.599377E3,1.1686457E4,1.7192824E4,1.87023E4,8.378251E2,1.7163087E3,3.0864917E3,3.5163801E3,4.0757185E3,5.235248E3,6.287192E3,7.131927E3,8.1025903E3,9.325609E3,1.1054849E4,1.2527572E4,1.634839E4,1.7565096E4,1.843503E4,2.0071643E4,7.114397E2,1.1008928E3,1.5303992E3,1.9884584E3,2.6379224E3,3.1204358E3,3.876316E3,4.3763955E3,4.9819033E3,5.502522E3,6.029708E3,6.4885425E3,6.9497007E3,7.3560566E3,7.898896E3,8.496226E3,9.058627E3,9.854692E3,1.0687198E4,1.147031E4,1.2213727E4,1.3099397E4,6.80407E2,8.5691174E2,1.010873E3,1.2262997E3,1.1385678E4,1.528224E3,1.9001519E3,2.1815247E3,2.3984543E3,2.7545703E3,3.078353E3,3.214558E3,3.7557722E3,4.0149194E3,4.2589526E3,4.4814917E3,4.858604E3,5.1187666E3,5.3961597E3,5.627733E3,5.8655205E3,6.148656E3,6.35328E3,6.5935884E3,6.819917E3,7.037555E3,7.732901E3,8.0049155E3,8.905521E3,9.262345E3,9.630097E3,1.0015773E4,1.0430696E4,1.0877745E4,1.1265849E4,1.1632775E4,1.1965821E4,1.2375638E4,1.2917959E4,1.3918271E4],"categories":[],"categories_nodes":[],"categories_segments":[],"categories_sizes":[],"default_left":[1,1,1,1,1,1,1,1,1,1,1,1,1,1,1,1,1,1,0,1,1,1,1,1,1,1,1,0,0,0,0,1,1,1,1,1,1,1,1,1,1,1,1,1,0,1,0,1,1,1,1,1,1,0,0,0,0,0,0,0,0,0,0,0,0,0,0,0,0,0,0,0,0,0,0,0,0,0,0,0,0,0,0,0,0,0,0,0,0,0,0,0,0],"id":16,"left_children":[1,3,5,7,9,11,13,15,17,19,21,23,25,27,29,31,33,35,-1,37,39,41,43,45,47,49,51,-1,-1,-1,-1,53,55,57,59,61,63,65,67,69,71,73,75,77,-1,79,-1,81,83,85,87,89,91,-1,-1,-1,-1,-1,-1,-1,-1,-1,-1,-1,-1,-1,-1,-1,-1,-1,-1,-1,-1,-1,-1,-1,-1,-1,-1,-1,-1,-1,-1,-1,-1,-1,-1,-1,-1,-1,-1,-1,-1],"loss_changes":[1.7301887E12,2.804629E11,2.9769073E11,2.3554458E10,4.492257E10,1.1785627E11,2.891055E9,5.193171E9,3.6691968E8,1.0552148E10,2.9798564E9,8.064467E9,1.4429716E10,5.908726E8,6.726615E8,3.783762E8,8.282358E8,6.785434E7,0E0,7.763231E8,1.2858163E9,3.5212493E8,3.44064E8,1.00768154E9,1.2043551E9,2.2709535E9,1.9493028E9,0E0,0E0,0E0,0E0,3.420493E7,4.0518656E7,1.9195494E8,1.0948608E8,3.393536E6,8.482816E6,1.1798118E8,4.5940736E7,1.4332723E8,9.519104E7,2.8884992E7,1.810432E7,1.3058048E7,0E0,9.384755E7,0E0,1.0774118E8,1.4221312E7,2.9360128E8,1.1291853E8,1.5702426E8,4.3699405E8,0E0,0E0,0E0,0E0,0E0,0E0,0E0,0E0,0E0,0E0,0E0,0E0,0E0,0E0,0E0,0E0,0E0,0E0,0E0,0E0,0E0,0E0,0E0,0E0,0E0,0E0,0E0,0E0,0E0,0E0,0E0,0E0,0E0,0E0,0E0,0E0,0E0,0E0,0E0,0E0],"parents":[2147483647,0,0,1,1,2,2,3,3,4,4,5,5,6,6,7,7,8,8,9,9,10,10,11,11,12,12,13,13,14,14,15,15,16,16,17,17,19,19,20,20,21,21,22,22,23,23,24,24,25,25,26,26,31,31,32,32,33,33,34,34,35,35,36,36,37,37,38,38,39,39,40,40,41,41,42,42,43,43,45,45,47,47,48,48,49,49,50,50,51,51,52,52],"right_children":[2,4,6,8,10,12,14,16,18,20,22,24,26,28,30,32,34,36,-1,38,40,42,44,46,48,50,52,-1,-1,-1,-1,54,56,58,60,62,64,66,68,70,72,74,76,78,-1,80,-1,82,84,86,88,90,92,-1,-1,-1,-1,-1,-1,-1,-1,-1,-1,-1,-1,-1,-1,-1,-1,-1,-1,-1,-1,-1,-1,-1,-1,-1,-1,-1,-1,-1,-1,-1,-1,-1,-1,-1,-1,-1,-1,-1,-1],"split_conditions":[4.0877086E4,1.9572125E4,7.706099E4,1.237437E4,3.1061844E4,5.4987938E4,9.677441E4,7.192415E3,1.776536E4,2.5429E4,3.6440758E4,4.727311E4,6.367654E4,9.253209E4,1.0397584E5,5.108205E3,9.615675E3,1.6173244E4,3.5163803E2,2.2536055E4,2.8273504E4,3.3919438E4,3.8737977E4,4.410307E4,5.1204242E4,6.0160305E4,6.818181E4,1.634839E3,1.7565096E3,1.8435029E3,2.0071643E3,4.01346E3,5.9940996E3,7.1924453E3,1.0852865E4,1.2956064E4,1.6939055E4,2.0920684E4,2.336395E4,2.692002E4,2.9796605E4,3.2299727E4,3.4772523E4,3.732459E4,7.3560565E2,4.2354508E4,8.4962256E2,4.8975926E4,5.2557934E4,5.7424516E4,6.1647133E4,6.5668375E4,7.171611E4,6.80407E1,8.569118E1,1.010873E2,1.2262997E2,1.1385677E3,1.528224E2,1.9001518E2,2.1815247E2,2.3984544E2,2.7545703E2,3.078353E2,3.214558E2,3.7557724E2,4.0149194E2,4.2589526E2,4.4814917E2,4.858604E2,5.1187668E2,5.3961597E2,5.627733E2,5.8655206E2,6.148656E2,6.35328E2,6.593588E2,6.819917E2,7.0375555E2,7.732901E2,8.004916E2,8.905522E2,9.262345E2,9.630097E2,1.00157733E3,1.0430697E3,1.0877745E3,1.1265848E3,1.1632776E3,1.1965822E3,1.2375638E3,1.2917959E3,1.3918271E3],"split_indices":[0,3,11,3,0,0,0,18,0,0,2,2,0,0,0,0,0,0,0,0,0,0,0,0,0,2,0,0,0,0,0,0,17,18,0,0,0,0,0,0,0,0,0,0,0,0,0,0,0,0,0,0,2,0,0,0,0,0,0,0,0,0,0,0,0,0,0,0,0,0,0,0,0,0,0,0,0,0,0,0,0,0,0,0,0,0,0,0,0,0,0,0,0],"split_type":[0,0,0,0,0,0,0,0,0,0,0,0,0,0,0,0,0,0,0,0,0,0,0,0,0,0,0,0,0,0,0,0,0,0,0,0,0,0,0,0,0,0,0,0,0,0,0,0,0,0,0,0,0,0,0,0,0,0,0,0,0,0,0,0,0,0,0,0,0,0,0,0,0,0,0,0,0,0,0,0,0,0,0,0,0,0,0,0,0,0,0,0,0],"sum_hessian":[1.41749E5,8.6127E4,5.5622E4,3.6283E4,4.9844E4,4.9982E4,5.64E3,2.7832E4,8.451E3,3.2623E4,1.7221E4,2.2561E4,2.7421E4,2.792E3,2.848E3,1.1403E4,1.6429E4,4.996E3,3.455E3,1.323E4,1.9393E4,7.546E3,9.675E3,1.3404E4,9.157E3,1.5669E4,1.1752E4,8.68E2,1.924E3,2.395E3,4.53E2,7.705E3,3.698E3,9.765E3,6.664E3,3.57E2,4.639E3,7.963E3,5.267E3,9.966E3,9.427E3,3.325E3,4.221E3,5.354E3,4.321E3,8.847E3,4.557E3,6.098E3,3.059E3,8.327E3,7.342E3,7.602E3,4.15E3,6.355E3,1.35E3,2.158E3,1.54E3,1E0,9.764E3,4.58E3,2.084E3,1.24E2,2.33E2,3.229E3,1.41E3,4.274E3,3.689E3,2.507E3,2.76E3,5.262E3,4.704E3,5.121E3,4.306E3,1.418E3,1.907E3,1.872E3,2.349E3,2.193E3,3.161E3,3.477E3,5.37E3,3.507E3,2.591E3,1.303E3,1.756E3,3.573E3,4.754E3,3.282E3,4.06E3,3.033E3,4.569E3,3.411E3,7.39E2],"tree_param":{"num_deleted":"0","num_feature":"20","num_nodes":"93","size_leaf_vector":"0"}},{"base_weights":[6.0512505E3,3.4198315E3,9.809338E3,1.494982E3,4.7192383E3,9.086994E3,1.5800234E4,1.1724869E3,2.6327712E3,3.9611213E3,5.603618E3,7.5249517E3,1.038301E4,1.2745874E4,1.6228549E4,7.235304E2,1.473885E3,2.0080043E3,2.8342817E3,3.5341382E3,4.45412E3,5.085823E3,6.1176914E3,7.0404653E3,8.075234E3,9.704103E3,1.1036112E4,1.579627E4,1.720898E4,6.183236E2,9.1131757E2,1.2709097E3,1.6448757E3,1.9885486E3,2.240706E3,2.7755857E3,3.0087222E3,3.3304988E3,3.7741848E3,4.228185E3,4.5760464E3,4.968566E3,5.3846245E3,5.8551064E3,6.3424614E3,6.747973E3,7.186115E3,7.813554E3,8.400358E3,9.328175E3,1.0018499E4,1.0730684E4,1.1493932E4,1.5085324E4,1.6064811E4,1.6950242E4,1.8485E4,4.9098837E2,6.3975525E2,8.437337E2,1.0332161E3,1.1511793E3,1.3304213E3,1.5522518E3,1.761649E3,2.6010994E3,2.8009934E3,3.2130254E3,3.4252231E3,3.6493352E3,3.8889414E3,4.1098516E3,4.317223E3,4.489227E3,4.692651E3,4.8991387E3,5.0848257E3,5.2496963E3,5.5014844E3,5.7112017E3,5.9749346E3,6.22528E3,6.448553E3,7.0925957E3,7.3319346E3,7.70144E3,7.956567E3,8.281012E3,8.661386E3,9.090861E3,9.501347E3,9.879902E3,1.0219144E4,1.0563207E4,1.096271E4,1.1312459E4,1.1737925E4],"categories":[],"categories_nodes":[],"categories_segments":[],"categories_sizes":[],"default_left":[1,1,1,1,1,1,1,1,1,1,1,1,1,0,1,1,1,1,1,1,1,1,1,1,1,1,1,1,1,1,1,1,1,0,0,1,0,1,1,1,1,1,1,1,1,0,1,1,1,1,1,1,1,0,0,0,0,0,0,0,0,0,0,0,0,0,0,0,0,0,0,0,0,0,0,0,0,0,0,0,0,0,0,0,0,0,0,0,0,0,0,0,0,0,0,0,0],"id":17,"left_children":[1,3,5,7,9,11,13,15,17,19,21,23,25,-1,27,29,31,33,35,37,39,41,43,45,47,49,51,53,55,57,59,61,63,-1,-1,65,-1,67,69,71,73,75,77,79,81,-1,83,85,87,89,91,93,95,-1,-1,-1,-1,-1,-1,-1,-1,-1,-1,-1,-1,-1,-1,-1,-1,-1,-1,-1,-1,-1,-1,-1,-1,-1,-1,-1,-1,-1,-1,-1,-1,-1,-1,-1,-1,-1,-1,-1,-1,-1,-1,-1,-1],"loss_changes":[1.4017469E12,2.0852487E11,2.524819E11,1.2326543E10,3.334878E10,1.053908E11,8.0087613E9,3.5418767E9,9.284649E8,5.626331E9,6.083379E9,6.242566E9,1.2516852E10,0E0,2.0609761E9,2.0725504E8,5.415936E8,3.752448E6,4.9074176E7,6.897828E8,3.2325632E8,3.7440717E8,6.429409E8,4.871291E8,8.7497114E8,1.5575286E9,1.9048694E9,4.8922624E8,2.3904256E8,1.8093056E7,3.0228224E7,4.9536E7,8.918835E7,0E0,0E0,1.1374592E7,0E0,7.558758E7,8.01751E7,2.8319744E7,6.057165E7,4.158259E7,2.1815296E7,5.7737216E7,3.6880384E7,0E0,6.22592E7,3.719168E7,8.146125E7,1.7563648E8,1.1016602E8,2.2288794E8,1.236009E8,0E0,0E0,0E0,0E0,0E0,0E0,0E0,0E0,0E0,0E0,0E0,0E0,0E0,0E0,0E0,0E0,0E0,0E0,0E0,0E0,0E0,0E0,0E0,0E0,0E0,0E0,0E0,0E0,0E0,0E0,0E0,0E0,0E0,0E0,0E0,0E0,0E0,0E0,0E0,0E0,0E0,0E0,0E0,0E0],"parents":[2147483647,0,0,1,1,2,2,3,3,4,4,5,5,6,6,7,7,8,8,9,9,10,10,11,11,12,12,14,14,15,15,16,16,17,17,18,18,19,19,20,20,21,21,22,22,23,23,24,24,25,25,26,26,27,27,28,28,29,29,30,30,31,31,32,32,35,35,37,37,38,38,39,39,40,40,41,41,42,42,43,43,44,44,46,46,47,47,48,48,49,49,50,50,51,51,52,52],"right_children":[2,4,6,8,10,12,14,16,18,20,22,24,26,-1,28,30,32,34,36,38,40,42,44,46,48,50,52,54,56,58,60,62,64,-1,-1,66,-1,68,70,72,74,76,78,80,82,-1,84,86,88,90,92,94,96,-1,-1,-1,-1,-1,-1,-1,-1,-1,-1,